tree
version=v4
num_class=1
num_tree_per_iteration=1
label_index=0
max_feature_idx=13
objective=regression_l1
feature_names=hour hour_sin hour_cos day_of_week dow_sin dow_cos slot_of_day week_number is_weekend is_exam_week is_holiday stop_id stop_type ring_id
feature_infos=[0:23] [-1:0.86602540378443871] [-1:1] [0:6] [-0.97492791218182362:0.97492791218182362] [-0.90096886790241903:1] [0:287] [1:10] [0:1] [0:1] [0:1] -1:24:23:17:18:22:12:14:13:15:16:0:21:8:19:10:20:6:7:11:2:3:25:4:1:5:27:9 -1:0:3:2:1:4 -1:7:2:5:0:3:1:4
tree_sizes=5262 5587 5614 5678 5715 5659 5776 5664 5808 5728 5628 5746 5795 5765 5708 5678 5759 5745 5764 5770 5919 5846 5785 5828 5823 5764 5727 5726 5873 5805 5774 5832 5881 5821 5834 5786 5893 5818 5835 5855 5934 5843 5870 5811 5927 5959 5904 5835 5923 5884 5926 5919 5970 5961 5935 5971 6016 5995 5965 5876 5957 5868 5999 5930 5873 5811 5972 5919 5838 5875 5943 5931 5885 5822 5879 5910 5880 5891 5868 5901 5874 5915 5868 5858 5883 5897 5862 5960 5866 5887 5896 5840 5905 5889 5858 5851 5888 5900 5936 5894 5919 5910 5851 5866 5878 5894 5920 5886 5882 5882 5898 5913 5871 5877 5825 5887 5846 5941 5924 5914 5892 5869 5886 5869 5858 5871 5835 5879 5874 5880 5897 5870 5816 5793 5841 5827 5858 5867 5788 5827 5821 5862 5834 5817 5806 5834 5838 5842 5878 5806 5866 5793 5804 5810 5859 5796 5847 5780 5869 5857 5815 5789 5774 5833 5843 5858 5762 5865 5790 5830 5781 5841 5832 5775 5827 5827 5735 6042 5997 5847 5825 5818 5794 5824 5775 5769 5970 5802 5809 5848 5811 5841 5769 5849 5751 6001 5864 5846 5802 5834 5778 5782 5746 5796 5833 5803 5882 5762 5771 5758 5766 5799 5827 5790 5845 5838 5732 5820 5772 5809 5774 5765 5784 5780 5779 5724 5750 5790 5836 5804 5745 5705 5756 5714 5708 5764 5759 5765 5794 5762 5792 5776 5798 5764 6056 5810 5835 5770 5729 5772 5860 5750 5789 5782 5768 5811 5744 5769 5790 5786 5775 5777 5758 5712 5863 5743 5747 5784 5794 5777 5762 5757 5734 5759 5784 5731 5789 5778 5746 5947 5729 5776 5978 5814 5828 5768 5748 5762 5801 5842 5801 5757 5814 5751 5942 5741 5865 5778 5759 5742 5836 5993 5724 5802 5779 5826 5738 5751 5709 5768 5837 5723 5749 5775 5800 5808 5842 5804 5821 5799 5754 5761 5762 5907 5762 5669 5772 5712 5840 5725 5800 5817 5792 5738 5927 5783 5761 5809 5816 5964 5746 5800 5743 5788 5765 5825 5737 5720 5949 5776 5742 5770 5751 5832 5742 5812 5674 5704 5778 5772 5710 5720 5717 5765 5699 5702 5757 5751 5772 5715 5711 5664 5828 6031 5720 5731 5731 5811 5802 5691 5814 5737 5701 5802 5689 5724 5851 5759 5737 5729 5693 5721 5812 5701 5697 5848 5753 5767 5744 5687 5827 5727 5693 5824 5789 5760 5757 5748 5752 5744 5750 5739 5723 5803 5773 5959 5785 5692 5737 5760 5738 5794 5711 5805 5693 5877 5877 5779 5733 5748 5692 5761 5705 5723 5810 5716 5703 5717 5726 5712 5774 5723 5677 5800 5682 5766 5778 5793 5779 5725 5790 5717 5744 5722 5783 5796 5716 5759 5688 5827 5781 5914 5824 5857 5790 5757 5727 5724 5806 5782 5778 5849 5740 5723 5721 5786 5745 5703 5767 5791 5718 5759 5787 5741 5761 5768 5729 5816 5743 5759 5756 5746 5720 5759 5931 5786 5765 5759 5751 5667 5842 5711 5712 5795 5758 5683 5832 5731 5693 5647 5734 5817 5820 5800 5832 5801 5739 5750 5669 5990 5901 5851 5677 5760 5752 5768 5703 5675 5795 5861 5659 5728 5715 5703 5659 5738 5758 5737 5670 5806 5707 5739 5804 5790 5792 5722 5758 5722 5650 5802 5810 5694 5723 5810 5782 5726 5808 5779 5771

Tree=0
num_leaves=63
num_cat=20
split_feature=13 6 11 10 13 11 3 6 10 11 2 11 6 6 6 6 6 12 11 6 6 10 1 6 2 2 11 11 2 11 11 3 6 6 6 6 6 2 11 11 6 6 11 6 6 6 6 11 0 6 6 6 6 10 11 11 0 0 2 6 11 11
split_gain=70995.9 10009.4 7426.9 4568.94 3357.96 1772.07 3635.83 1661.36 1523.53 1437.28 793.285 1167.58 690.795 980.065 676.396 423.385 384.311 310.046 226.639 260.581 222.471 167.259 162.342 154.184 151.758 127.245 508.837 485.531 333.052 122.789 114.486 112.57 111.753 108.554 94.7039 94.2963 117.432 93.7161 193.957 146.679 90.6235 90.0822 84.6658 84.56 70.1649 80.0575 66.2286 63.7746 297.098 184.043 84.5737 61.8272 58.17 56.374 48.2451 45.7779 797.215 677.963 44.7477 43.9466 53.1937 43.4128
threshold=0 212.50000000000003 1 1.0000000180025095e-35 2 3 4.5000000000000009 126.50000000000001 1.0000000180025095e-35 4 -0.9159756150367534 5 182.50000000000003 160.50000000000003 206.50000000000003 208.50000000000003 231.50000000000003 6 7 152.50000000000003 218.50000000000003 1.0000000180025095e-35 -0.60355339059327362 229.50000000000003 -0.98296291314453399 -0.70710678118654757 8 9 -0.5 10 11 4.5000000000000009 175.50000000000003 197.50000000000003 163.50000000000003 133.50000000000003 162.50000000000003 -0.5 12 13 124.50000000000001 137.50000000000003 14 256.50000000000006 202.50000000000003 186.50000000000003 192.50000000000003 15 13.500000000000002 127.50000000000001 184.50000000000003 129.50000000000003 209.50000000000003 1.0000000180025095e-35 16 17 16.500000000000004 16.500000000000004 -0.9159756150367534 220.50000000000003 18 19
decision_type=9 2 9 2 9 9 2 2 2 9 2 9 2 2 2 2 2 1 9 2 2 2 2 2 2 2 9 9 2 9 9 2 2 2 2 2 2 2 9 9 2 2 9 2 2 2 2 9 2 2 2 2 2 2 9 9 2 2 2 2 9 9
left_child=4 2 8 7 5 6 16 -4 10 23 11 24 13 41 44 40 21 22 -13 -20 42 30 31 53 -2 26 -12 28 33 -18 -1 43 34 -27 -15 -26 -37 -29 -39 -40 -7 51 -11 61 45 -14 58 48 -28 -49 -51 -9 -16 -3 -42 56 -41 -57 -8 60 -17 -6
right_child=1 9 3 -5 17 15 46 12 -10 20 25 18 14 32 52 59 29 -19 19 -21 -22 -23 -24 -25 35 27 47 37 -30 -31 -32 -33 -34 -35 -36 36 -38 38 39 55 54 -43 -44 -45 -46 -47 -48 49 -50 50 -52 -53 -54 -55 -56 57 -58 -59 -60 -61 -62 -63
leaf_value=3.2000000000000002 3.2000000000000002 3.0499999999999998 3.2000000000000002 2.8999999999999999 2.8999999999999999 2.9500000000000002 2.8999999999999999 3.1000000000000001 2.8500000000000001 2.8999999999999999 2.9500000000000002 3 3.1000000000000001 3.0499999999999998 3.0499999999999998 2.8999999999999999 3.0499999999999998 2.8500000000000001 3.0499999999999998 3 2.8999999999999999 2.8500000000000001 2.8999999999999999 3 3 3 3.0499999999999998 3 3.2000000000000002 3 3.0499999999999998 2.8500000000000001 3.0499999999999998 3.1000000000000001 3 3.1000000000000001 3.0499999999999998 2.9500000000000002 3.1000000000000001 2.9500000000000002 2.8999999999999999 3.1000000000000001 2.9500000000000002 2.8999999999999999 3.1000000000000001 3.1499999999999999 2.9500000000000002 2.9500000000000002 3 3 3.0499999999999998 3.0499999999999998 3 2.8500000000000001 2.8999999999999999 3.0499999999999998 3.1000000000000001 2.9500000000000002 2.8999999999999999 2.8999999999999999 2.8999999999999999 2.9500000000000002
leaf_weight=1191 2167 1228 21483 1907 411 3964 2603 2348 1241 445 2622 2658 3121 2333 2323 2403 658 33681 5386 3875 7381 75 11333 800 379 1347 3099 10527 1236 1356 2398 3467 5346 441 9250 3098 918 571 293 1364 3649 17823 1605 2080 3084 12347 2156 1503 6143 3836 1261 6188 1823 28 10893 1812 1241 1548 3978 9259 1940 2836
leaf_count=1191 2167 1228 21483 1907 411 3964 2603 2348 1241 445 2622 2658 3121 2333 2323 2403 658 33681 5386 3875 7381 75 11333 800 379 1347 3099 10527 1236 1356 2398 3467 5346 441 9250 3098 918 571 293 1364 3649 17823 1605 2080 3084 12347 2156 1503 6143 3836 1261 6188 1823 28 10893 1812 1241 1548 3978 9259 1940 2836
internal_value=2.99568 3.01641 3.01991 3.02897 2.96273 2.97259 2.98718 3.03065 3.00606 2.97146 3.00725 3.01578 3.02671 3.02301 3.03378 2.96604 3.01832 2.95421 3.00643 3.01012 2.96322 3.02796 2.95926 3.00936 3.0327 3.00319 3.00019 3.00592 3.02437 3.00077 3.0295 2.96435 3.01362 3.01065 3.01086 3.0274 3.02965 3.00269 2.99813 3.00069 2.97096 3.02904 2.97776 2.96891 3.03786 3.03924 2.96692 3.00357 3.00625 2.99981 3.00434 3.02481 3.01552 3.02034 2.96913 2.99897 3.00394 2.99512 2.96443 2.95933 2.96349 2.97396
internal_weight=259760 159429 147942 89376 100331 46523 14415 87469 58566 11487 57325 18481 65986 43288 22698 32108 5678 53808 11919 9261 9431 3664 20127 2056 6562 38844 18464 20380 3024 2014 3589 8794 16929 1788 11583 4395 4016 17356 6829 6258 18506 26359 2050 5327 18552 15468 8737 15842 9242 6600 5097 8536 4146 1256 14542 5965 2605 3360 6581 13602 4343 3247
internal_count=259760 159429 147942 89376 100331 46523 14415 87469 58566 11487 57325 18481 65986 43288 22698 32108 5678 53808 11919 9261 9431 3664 20127 2056 6562 38844 18464 20380 3024 2014 3589 8794 16929 1788 11583 4395 4016 17356 6829 6258 18506 26359 2050 5327 18552 15468 8737 15842 9242 6600 5097 8536 4146 1256 14542 5965 2605 3360 6581 13602 4343 3247
cat_boundaries=0 1 2 3 4 5 6 7 8 9 10 11 12 13 14 15 16 17 18 19 20
cat_threshold=43 41697764 9 7864640 4194305 6815808 22 1048832 1048832 1048832 1048832 1048832 33554560 64 278528 33833092 262180 6815776 25214467 1
is_linear=0
shrinkage=1


Tree=1
num_leaves=63
num_cat=17
split_feature=13 0 12 9 2 10 9 6 13 9 10 12 3 12 6 6 12 6 2 2 12 12 6 6 6 6 12 6 9 2 3 12 2 12 2 6 12 6 6 2 6 6 2 12 0 0 6 9 12 6 6 9 12 6 6 12 12 6 10 2 10 6
split_gain=56951.1 7409.38 5465.75 5069.24 3998.94 3862.22 2747.56 2205.47 2019.35 1967.84 1211.69 1066.85 2790.01 821.803 762.243 970.459 742.601 695.563 371.347 338.217 1112.22 325.039 308.575 301.189 252.484 270.271 249.22 246.71 178.405 178.271 291.442 172.144 133.267 409.402 325.686 125.072 123.368 112.314 112.212 106.194 104.642 112.474 102.788 224.232 492.591 309.47 102.441 100.365 95.9461 97.1452 94.3149 93.1773 82.4794 78.7899 72.7034 68.9953 66.1208 65.6642 57.9177 54.9518 53.3975 53.329
threshold=0 17.500000000000004 1 1.0000000180025095e-35 1.0000000180025095e-35 1.0000000180025095e-35 1.0000000180025095e-35 125.50000000000001 2 1.0000000180025095e-35 1.0000000180025095e-35 3 4.5000000000000009 4 182.50000000000003 205.50000000000003 5 159.50000000000003 0.60355339059327384 -0.9159756150367534 6 7 216.50000000000003 229.50000000000003 161.50000000000003 137.50000000000003 8 124.50000000000001 1.0000000180025095e-35 0.78656609248549303 4.5000000000000009 9 -0.70710678118654757 10 -0.5 140.50000000000003 11 129.50000000000003 256.50000000000006 0.37940952255126026 186.50000000000003 202.50000000000003 -0.5 12 16.500000000000004 16.500000000000004 223.50000000000003 1.0000000180025095e-35 13 220.50000000000003 200.50000000000003 1.0000000180025095e-35 14 193.50000000000003 146.50000000000003 15 16 232.50000000000003 1.0000000180025095e-35 0.78656609248549303 1.0000000180025095e-35 103.50000000000001
decision_type=9 2 1 2 2 2 2 2 9 2 2 1 2 1 2 2 1 2 2 2 1 1 2 2 2 2 1 2 2 2 2 1 2 1 2 2 1 2 2 2 2 2 2 1 2 2 2 2 1 2 2 2 1 2 2 1 1 2 2 2 2 2
left_child=3 2 5 8 22 7 10 51 11 14 19 12 23 47 17 40 18 35 -6 20 24 29 -5 31 25 -4 -24 56 46 30 38 60 36 34 53 37 -21 -9 -10 -18 -16 -42 -35 44 -44 -45 -15 57 49 -29 -14 61 54 -34 -22 -25 -13 -3 -33 -20 -1 -2
right_child=1 13 6 4 16 -7 -8 9 21 -11 -12 27 50 28 15 -17 39 -19 59 32 52 -23 26 55 -26 -27 -28 48 -30 -31 -32 58 33 42 -36 -37 -38 -39 -40 -41 41 -43 43 45 -46 -47 -48 -49 -50 -51 -52 -53 -54 -55 -56 -57 -58 -59 -60 -61 -62 -63
leaf_value=0.19 0.19 0.047500000000000014 0.044999999999999998 0.20499999999999999 0.057499999999999996 -0.095000000000000001 0.15000000000000002 0.095000000000000001 -0.047500000000000014 0.24750000000000003 -0.14250000000000002 -0.047500000000000014 -0.095000000000000001 -0.095000000000000001 0.095000000000000001 0.044999999999999998 -0.044999999999999998 0.044999999999999998 -0.04250000000000001 0 0.047500000000000014 -0.14250000000000002 -0.044999999999999998 0.047500000000000014 0.044999999999999998 0.13999999999999999 0.29750000000000004 -0.095000000000000001 -0.044999999999999998 -0.095000000000000001 -0.14250000000000002 0.047500000000000014 0 0 0.19 0.095000000000000001 -0.047500000000000014 0.047500000000000014 -0.095000000000000001 -0.092500000000000013 0.14250000000000002 0.095000000000000001 -0.047500000000000014 0.047500000000000014 0.095000000000000001 -0.095000000000000001 -0.095000000000000001 0.14750000000000002 -0.095000000000000001 -0.095000000000000001 -0.047500000000000014 0.44000000000000006 0 0.095000000000000001 0 -0.0024999999999999914 -0.097500000000000017 -0.050000000000000003 -0.14250000000000002 -0.044999999999999998 -0.092500000000000013 0.13999999999999999
leaf_weight=940 4636 1117 983 3208 747 1928 6218 2784 2529 7332 1247 2071 6355 2434 2784 5190 706 15772 533 14111 3440 32875 623 719 977 3901 320 12440 899 8586 2321 1889 938 9383 1100 13170 2348 7553 1625 3617 11000 2070 1183 1650 1453 2097 5067 201 7078 5527 1405 2236 2385 659 4825 1470 1449 517 43 1234 21 13841
leaf_count=940 4636 1117 983 3208 747 1928 6218 2784 2529 7332 1247 2071 6355 2434 2784 5190 706 15772 533 14111 3440 32875 623 719 977 3901 320 12440 899 8586 2321 1889 938 9383 1100 13170 2348 7553 1625 3617 11000 2070 1183 1650 1453 2097 5067 201 7078 5527 1405 2236 2385 659 4825 1470 1449 517 43 1234 21 13841
internal_value=-0.00512317 0.0134493 0.0162734 -0.0346333 -0.00258871 0.0240016 0.00442036 0.0255318 -0.0385782 0.0211609 0.0007108 -0.0304583 -0.0184441 -0.0277032 0.0181878 0.0258669 -0.0260922 0.0140735 -0.00437582 0.00189168 0.0077884 -0.0455761 0.0361218 0.0103392 0.0252585 0.0299431 0.0109691 -0.035851 -0.0343034 -0.0393299 -0.0330875 0.0209274 -0.000896137 0.00201997 0.0199826 0.0195237 -0.0041676 0.0154052 -0.0251547 -0.0386202 0.0320103 0.0338861 -0.00106459 -0.00596027 0.00521333 -0.0137992 -0.0368673 0.00268007 -0.037606 -0.0355199 -0.0373185 0.0398079 -0.00184754 0.00563208 0.000519027 -0.00365219 -0.0234638 -0.00140444 0.0120977 -0.0168893 0.0381475 0.0386395
internal_weight=259760 159429 149194 100331 10988 90296 58898 88368 89343 67655 52680 41407 12842 10235 60323 21044 6837 39279 2514 51433 16511 47936 4151 5082 5861 4884 943 28565 8400 15061 6475 2893 34922 18463 2697 23507 16459 10337 4154 4323 15854 13070 15766 6383 2636 3747 7501 1835 25045 17967 7760 20713 10650 1597 8265 2189 3520 1634 1932 1767 961 18477
internal_count=259760 159429 149194 100331 10988 90296 58898 88368 89343 67655 52680 41407 12842 10235 60323 21044 6837 39279 2514 51433 16511 47936 4151 5082 5861 4884 943 28565 8400 15061 6475 2893 34922 18463 2697 23507 16459 10337 4154 4323 15854 13070 15766 6383 2636 3747 7501 1835 25045 17967 7760 20713 10650 1597 8265 2189 3520 1634 1932 1767 961 18477
cat_boundaries=0 1 2 3 4 5 6 7 8 9 10 11 12 13 14 15 16 17
cat_threshold=43 17 9 6 20 22 4 6 9 2 2 12 4 17 8 2 1
is_linear=0
shrinkage=0.05


Tree=2
num_leaves=63
num_cat=16
split_feature=13 6 11 13 10 6 10 11 3 6 6 6 11 6 11 2 11 2 6 1 3 6 11 11 6 6 6 6 6 6 6 2 11 2 11 2 11 0 0 11 6 6 6 6 6 10 6 2 6 11 10 11 6 6 6 10 6 11 0 6 6 6
split_gain=55027.7 6968.97 5149.51 3875.63 3723.12 2598.33 1362.1 1209 2839.72 966.25 1343.99 1139.78 927.677 486.072 467.258 363.996 1079.66 237.469 220.842 203.181 188.321 176.995 169.701 159.718 154.327 136.586 133.625 195.728 127.244 126.409 121.133 112.6 401.745 348.254 172.741 116.027 218.814 571.28 390.92 108.155 98.25 106.307 95.3799 91.6729 88.5367 83.4192 82.3623 82.2537 81.9859 76.9066 76.2511 73.8017 58.071 53.607 51.8051 50.6148 50.135 104.052 46.5753 45.8149 43.664 43.5448
threshold=0 214.50000000000003 1 2 1.0000000180025095e-35 126.50000000000001 1.0000000180025095e-35 3 4.5000000000000009 182.50000000000003 160.50000000000003 205.50000000000003 4 208.50000000000003 5 -0.9159756150367534 6 -0.98296291314453399 235.50000000000003 -0.60355339059327362 4.5000000000000009 223.50000000000003 7 8 177.50000000000003 123.50000000000001 135.50000000000003 161.50000000000003 192.50000000000003 137.50000000000003 208.50000000000003 -0.70710678118654757 9 -0.5 10 -0.5 11 16.500000000000004 16.500000000000004 12 186.50000000000003 202.50000000000003 256.50000000000006 163.50000000000003 129.50000000000003 1.0000000180025095e-35 146.50000000000003 -0.9159756150367534 197.50000000000003 13 1.0000000180025095e-35 14 183.50000000000003 103.50000000000001 184.50000000000003 1.0000000180025095e-35 221.50000000000003 15 18.500000000000004 228.50000000000003 147.50000000000003 216.50000000000003
decision_type=9 2 9 9 2 2 2 9 2 2 2 2 9 2 9 2 9 2 2 2 2 2 9 9 2 2 2 2 2 2 2 2 9 2 9 2 9 2 2 9 2 2 2 2 2 2 2 2 2 9 2 9 2 2 2 2 2 9 2 2 2 2
left_child=3 2 6 7 5 53 15 8 18 10 29 40 55 23 19 16 17 -2 22 20 42 49 50 60 43 -25 -19 -28 47 44 -13 34 33 48 52 -34 37 -37 -38 -18 -11 -42 51 -12 -7 -24 -41 -10 -33 -14 58 -5 -17 -4 -27 59 57 -15 -1 -3 -9 -51
right_child=1 12 4 14 -6 9 -8 13 28 11 24 30 21 56 -16 31 39 26 -20 -21 -22 -23 45 25 -26 54 27 -29 -30 -31 -32 32 35 -35 -36 36 38 -39 -40 46 41 -43 -44 -45 -46 -47 -48 -49 -50 61 -52 -53 -54 -55 -56 -57 -58 -59 -60 -61 -62 -63
leaf_value=0.18049999999999999 0.183 0.045125000000000019 0.21799999999999997 -0.087874999999999995 -0.090249999999999997 0.090249999999999997 -0.135375 -0.090249999999999997 -0.090249999999999997 0.090249999999999997 0.045250000000000012 0.045250000000000012 -0.090249999999999997 -0.090249999999999997 -0.135375 -0.045125000000000019 0 0.04250000000000001 -0.0048749999999999852 -0.090249999999999997 -0.135375 -0.090249999999999997 0.045125000000000019 -0.045125000000000019 0.045250000000000012 -0.090249999999999997 0.13799999999999998 0.045250000000000012 -0.045125000000000019 0.090249999999999997 0.00024999999999999469 0 0 0.18049999999999999 0 -0.045125000000000019 0.045125000000000019 0.090249999999999997 -0.042750000000000003 0.045125000000000019 0.135375 0.090249999999999997 -0.090249999999999997 -0.0022499999999999964 0.045125000000000019 -0.135375 0 -0.090249999999999997 0.090249999999999997 -0.042750000000000003 -0.094875000000000001 -0.045125000000000019 0.0048749999999999852 0.13299999999999998 -0.040249999999999987 -0.144875 -0.090249999999999997 -0.090249999999999997 0.095125000000000015 -0.0023749999999999939 -0.090249999999999997 -0.042750000000000003
leaf_weight=910 2167 1014 5235 411 1924 2348 1244 1967 2603 3121 2333 2317 673 2764 36192 2042 2658 737 1119 9908 3042 5684 2984 2866 3807 7899 2560 1098 2156 17823 3204 1347 10527 1236 15842 1328 1812 1605 2266 3859 12347 2310 1824 10789 6188 63 5402 3978 441 526 31 2431 580 16284 3117 41 8650 2188 571 850 2657 1860
leaf_count=910 2167 1014 5235 411 1924 2348 1244 1967 2603 3121 2333 2317 673 2764 36192 2042 2658 737 1119 9908 3042 5684 2984 2866 3807 7899 2560 1098 2156 17823 3204 1347 10527 1236 15842 1328 1812 1605 2266 3859 12347 2310 1824 10789 6188 63 5402 3978 441 526 31 2431 580 16284 3117 41 8650 2188 571 850 2657 1860
internal_value=-0.00575837 0.0124978 0.0152953 -0.0347659 0.0228087 0.0243138 0.00377707 -0.0241816 -0.0121278 0.0194324 0.0150132 0.0276425 -0.026577 -0.0295875 -0.0439108 0.00489757 0.0106782 0.0269465 0.0153916 -0.0371151 -0.0310446 -0.0334447 0.020277 -0.0243214 0.00401941 -0.0215731 0.0203056 0.0242189 -0.0300266 0.0220738 0.00779645 0.00215996 0.00470502 0.0215039 -0.000674011 0.00179478 -0.00318709 0.00721858 -0.0106639 0.00169711 0.0338054 0.0355217 -0.0247305 0.00144756 0.0170681 0.013328 0.00424923 -0.0334815 0.00746323 -0.0237799 0.0339629 -0.0189983 -0.0125356 0.0394182 -0.0241188 0.00508851 -0.0367734 -0.0327528 0.0358146 0.00632745 -0.032454 -0.0192792
internal_weight=259760 159429 148781 100331 90030 88106 58751 46523 14415 66587 43288 23299 10648 32108 53808 57507 18481 6562 5678 17616 7708 8743 4559 18506 16929 13882 4395 3658 8737 26359 5521 39026 20562 3024 18464 17538 7011 2933 4078 11919 17778 14657 4666 13122 8536 3047 9261 6581 1788 3059 1512 2842 2622 21519 11016 1905 13602 4952 1481 1864 4624 2386
internal_count=259760 159429 148781 100331 90030 88106 58751 46523 14415 66587 43288 23299 10648 32108 53808 57507 18481 6562 5678 17616 7708 8743 4559 18506 16929 13882 4395 3658 8737 26359 5521 39026 20562 3024 18464 17538 7011 2933 4078 11919 17778 14657 4666 13122 8536 3047 9261 6581 1788 3059 1512 2842 2622 21519 11016 1905 13602 4952 1481 1864 4624 2386
cat_boundaries=0 1 2 3 4 5 6 7 8 9 10 11 12 13 14 15 16
cat_threshold=43 41697732 9 7864640 4194305 7864641 6815808 1048832 262180 1048832 1048832 6815808 1048832 278528 1 25214467
is_linear=0
shrinkage=0.05


Tree=3
num_leaves=63
num_cat=19
split_feature=13 0 11 9 10 2 0 13 9 9 10 11 3 0 0 0 11 12 1 2 11 12 0 11 0 0 0 9 1 3 0 11 9 0 1 2 11 2 11 2 11 2 11 0 0 11 11 0 11 9 0 9 0 0 11 0 1 10 0 2 10 11
split_gain=55236.1 6957.31 5143.96 4504.42 3723.21 3376.12 2182.25 2020.97 1982.71 1978.74 1205.51 1069.26 2795.78 913.631 996.083 967.166 903.95 724.469 346.94 343.149 796.128 325.039 296.945 260.884 242.923 209.308 199.324 178.405 178.271 291.442 169.126 146.557 136.246 133.608 106.194 102.72 395.737 127.042 377.966 352.767 123.368 104.36 230.436 486.701 300.561 95.8201 91.0493 90.5975 89.358 68.5926 67.2596 66.6343 66.1791 60.7234 57.8333 56.6535 54.9518 51.5583 49.078 47.6703 42.5261 42.2561
threshold=0 17.500000000000004 1 1.0000000180025095e-35 1.0000000180025095e-35 1.0000000180025095e-35 10.500000000000002 2 1.0000000180025095e-35 1.0000000180025095e-35 1.0000000180025095e-35 3 4.5000000000000009 14.500000000000002 16.500000000000004 12.500000000000002 4 5 -0.78656609248549292 -0.98296291314453399 6 7 18.500000000000004 8 9.5000000000000018 10.500000000000002 13.500000000000002 1.0000000180025095e-35 -0.60355339059327362 4.5000000000000009 15.500000000000002 9 1.0000000180025095e-35 11.500000000000002 -0.9159756150367534 -0.9159756150367534 10 -0.70710678118654757 11 -0.5 12 -0.5 13 16.500000000000004 16.500000000000004 14 15 16.500000000000004 16 1.0000000180025095e-35 12.500000000000002 1.0000000180025095e-35 18.500000000000004 18.500000000000004 17 20.500000000000004 -0.60355339059327362 1.0000000180025095e-35 15.500000000000002 -0.9159756150367534 1.0000000180025095e-35 18
decision_type=9 2 9 2 2 2 2 9 2 2 2 9 2 2 2 2 9 1 2 2 9 1 2 9 2 2 2 2 2 2 2 9 2 2 2 2 9 2 9 2 9 2 9 2 2 9 9 2 9 2 2 2 2 2 9 2 2 2 2 2 2 9
left_child=3 2 9 7 6 23 24 11 13 10 19 12 22 15 30 33 49 18 -7 20 -2 28 31 -5 51 54 -17 52 29 55 -15 -1 -26 -8 -19 36 -21 40 39 58 -37 -40 43 -43 -44 -27 -38 -14 -24 60 -48 -4 -18 -47 -13 -9 -20 -33 -39 -11 -3 -25
right_child=1 16 4 5 -6 17 8 21 -10 59 -12 25 47 14 -16 26 27 34 56 35 -22 -23 48 61 32 45 -28 -29 -30 -31 -32 57 -34 -35 -36 37 46 38 41 -41 -42 42 44 -45 -46 53 50 -49 -50 -51 -52 -53 -54 -55 -56 -57 -58 -59 -60 -61 -62 -63
leaf_value=0.17147500000000002 0.12385 0.0026187499999999809 0.12634999999999999 -0.038237499999999994 -0.08573749999999998 0.061393749999999983 0.042868750000000011 -0.042868750000000011 0.23286250000000003 0.18774375000000001 -0.12860625000000001 -0.088112499999999996 -0.08573749999999998 0.08573749999999998 0.04048750000000001 0.042987500000000005 -0.08573749999999998 -0.038237499999999994 -0.033606250000000018 0.081100000000000005 0 -0.12860625000000001 0.045368750000000027 0.24926250000000005 0.08573749999999998 -0.08573749999999998 -0.0021374999999999923 -0.038237499999999994 -0.08573749999999998 -0.12860625000000001 0.12860625000000001 0.042868750000000011 0.28286875 0.08573749999999998 -0.081106250000000032 -0.042868750000000011 -0.050000000000000003 0 0 0.17147500000000002 0 -0.042868750000000011 0.042868750000000011 0.08573749999999998 -0.08573749999999998 -0.08573749999999998 0.042868750000000011 -0.042868750000000011 -0.0046312499999999982 0.13786875000000001 0 0.41135000000000005 -0.08573749999999998 -0.08573749999999998 -0.042868750000000011 -0.08573749999999998 -0.038237499999999994 -0.12860625000000001 0.045249999999999992 0.13774375000000003 -0.13763125000000001 0.14926250000000002
leaf_weight=832 1937 1594 14329 388 1928 747 8239 1383 6834 1970 1247 1503 6548 8252 6577 8306 3615 706 533 3924 3531 32875 848 1684 8326 7653 8221 899 8586 2321 8233 1623 995 8317 3617 2348 1586 811 9383 1100 14111 1215 1618 1453 2097 13323 2756 1212 1742 201 2777 1739 3886 3010 3076 2771 1234 37 786 4248 40 2079
leaf_count=832 1937 1594 14329 388 1928 747 8239 1383 6834 1970 1247 1503 6548 8252 6577 8306 3615 706 533 3924 3531 32875 848 1684 8326 7653 8221 899 8586 2321 8233 1623 995 8317 3617 2348 1586 811 9383 1100 14111 1215 1618 1453 2097 13323 2756 1212 1742 201 2777 1739 3886 3010 3076 2771 1234 37 786 4248 40 2079
internal_value=-0.00579417 0.0124966 0.0152331 -0.0348566 0.0227304 -0.00465003 0.0242327 -0.0385754 0.0192436 0.00373455 0.000586464 -0.0304523 -0.0184246 0.0161482 0.0237877 0.0108226 -0.0273808 -0.0262458 -0.00479181 0.00176433 0.0136053 -0.0455761 0.0103884 0.0309183 0.036608 -0.035851 0.00226567 -0.0343034 -0.0393299 -0.0330875 0.0303513 0.0227098 0.0301837 0.0193642 -0.0386202 0.000355596 0.00455896 -0.000973452 0.00187374 0.019133 -0.0041676 -0.00108994 -0.00602294 0.00518838 -0.014052 -0.0377341 -0.00247507 -0.0373185 -0.00146519 0.00446859 0.000558352 0.0403343 -0.0368673 -0.0354122 -0.026063 -0.0251547 -0.0168893 0.0138285 0.00419197 0.0304104 0.00109846 0.0348904
internal_weight=259760 159429 149194 100331 90296 10988 88368 89343 62979 58898 52680 41407 12842 56145 23062 33083 10235 6837 2514 51433 5468 47936 5082 4151 25389 28565 16527 8400 15061 6475 16485 2492 9321 16556 4323 45965 11043 34922 18463 2697 16459 15766 6383 2668 3715 23986 7119 7760 2590 1835 5533 16068 7501 16333 4579 4154 1767 1660 1597 6218 1634 3763
internal_count=259760 159429 149194 100331 90296 10988 88368 89343 62979 58898 52680 41407 12842 56145 23062 33083 10235 6837 2514 51433 5468 47936 5082 4151 25389 28565 16527 8400 15061 6475 16485 2492 9321 16556 4323 45965 11043 34922 18463 2697 16459 15766 6383 2668 3715 23986 7119 7760 2590 1835 5533 16068 7501 16333 4579 4154 1767 1660 1597 6218 1634 3763
cat_boundaries=0 1 2 3 4 5 6 7 8 9 10 11 12 13 14 15 16 17 18 19
cat_threshold=43 41697764 9 7864640 4194305 22 6815808 6 33618560 1048832 6815808 1048832 1048832 6815840 33841316 1048832 1048832 262182 4916251
is_linear=0
shrinkage=0.05


Tree=4
num_leaves=63
num_cat=12
split_feature=2 3 9 11 11 1 6 9 9 6 6 6 3 1 9 9 2 11 9 11 2 9 11 3 1 6 6 6 11 6 6 6 9 4 7 7 2 11 2 6 6 6 6 12 1 11 11 6 2 11 0 0 6 6 6 6 3 11 6 4 7 7
split_gain=46333.2 16646.9 5735.75 4927.2 2959.23 4259.19 2617.12 2366.81 1932.8 905.715 1418.27 1333.02 643.432 613.807 530.876 509.769 412.965 908.874 286.219 282.67 250.798 203.277 177.408 168.667 273.55 159.295 157.008 142.745 140.868 132.81 206.434 130.059 127.131 130.96 251.845 820.617 125.875 349.995 360.845 125.493 125.274 139.668 124.894 123.515 121.546 119.266 111.817 111.816 102.351 224.637 475.792 293.468 94.4374 91.651 89.55 88.8405 79.3628 76.9748 71.6078 71.0073 125.514 415.956
threshold=-0.12940952255126037 4.5000000000000009 1.0000000180025095e-35 0 1 -0.9159756150367534 126.50000000000001 1.0000000180025095e-35 1.0000000180025095e-35 182.50000000000003 206.50000000000003 160.50000000000003 4.5000000000000009 -0.9159756150367534 1.0000000180025095e-35 1.0000000180025095e-35 -0.9159756150367534 2 1.0000000180025095e-35 3 -0.98296291314453399 1.0000000180025095e-35 4 4.5000000000000009 -0.60355339059327362 124.50000000000001 228.50000000000003 177.50000000000003 5 135.50000000000003 161.50000000000003 140.50000000000003 1.0000000180025095e-35 0.87837969732492682 6.5000000000000009 7.5000000000000009 -0.70710678118654757 6 -0.5 223.50000000000003 202.50000000000003 186.50000000000003 209.50000000000003 7 -0.60355339059327362 8 9 229.50000000000003 -0.5 10 16.500000000000004 16.500000000000004 221.50000000000003 256.50000000000006 197.50000000000003 163.50000000000003 4.5000000000000009 11 129.50000000000003 0.87837969732492682 6.5000000000000009 7.5000000000000009
decision_type=2 2 2 9 9 2 2 2 2 2 2 2 2 2 2 2 2 9 2 9 2 2 9 2 2 2 2 2 9 2 2 2 2 2 2 2 2 9 2 2 2 2 2 1 2 9 9 2 2 9 2 2 2 2 2 2 2 9 2 2 2 2
left_child=1 3 22 8 5 12 32 9 16 11 40 31 19 14 39 23 17 20 -14 47 -1 26 25 24 53 -3 -21 55 -12 -22 -31 58 33 -5 -35 -36 45 38 54 46 41 -11 -30 -15 -17 -18 56 -2 -39 50 -50 -51 -16 -7 -38 -13 -6 -4 -8 -33 -61 -62
right_child=4 2 57 6 13 15 7 -9 -10 10 28 27 18 43 52 44 36 -19 -20 21 29 -23 -24 -25 -26 -27 -28 -29 42 30 -32 59 -34 34 35 -37 37 48 -40 -41 -42 -43 -44 -45 -46 -47 -48 -49 49 51 -52 -53 -54 -55 -56 -57 -58 -59 -60 60 61 -63
leaf_value=0.1176575 0.16290125 -0.040725312499999999 0.28204312500000001 0.12206312499999999 -0.081450624999999985 -0.040725312499999999 0.081450624999999985 0.21872531249999999 0.13311281250000004 0.081450624999999985 0.093213125000000036 0.040838124999999996 -0.081450624999999985 -0.079194374999999997 0.0042993750000000167 0.0083240624999999738 -0.040725312499999999 0 0.15832406249999997 0.042737812500000021 -0.0084300000000000052 0.14179906249999999 -0.081450624999999985 -0.12217593750000003 -0.081450624999999985 -0.081450624999999985 -0.0023871874999999987 0.038700625000000002 0.040963124999999989 0.077044999999999988 0.0364325 0.081450624999999985 0.3865325 0.12206312499999999 -0.081450624999999985 0.12206312499999999 0 0 0.16290125 -0.081450624999999985 0.079307187499999987 0.12217593750000003 -0.0042868749999999791 -0.12217593750000003 -0.036325624999999986 0 -0.081450624999999985 0.043100312500000015 -0.040725312499999999 0.040725312499999999 0.081450624999999985 -0.083825625000000001 -0.036325624999999986 -0.081450624999999985 0.083474999999999994 -0.0020306249999999973 -0.13145062499999999 0.14179937500000003 0.040725312499999999 0.081450624999999985 -0.13145062499999999 0.081450624999999985
leaf_weight=1990 1073 2652 1639 15878 4051 2793 2144 7248 6218 2854 479 2132 1098 1808 609 821 2404 10898 135 2657 676 576 11681 3833 7158 10490 2178 3475 1913 2347 1001 11489 2320 2325 474 960 1230 9600 1127 12105 2827 11268 2214 34066 1076 14469 2115 726 1243 1657 1488 2143 1667 1627 407 9861 464 1468 7739 1677 334 685
leaf_count=1990 1073 2652 1639 15878 4051 2793 2144 7248 6218 2854 479 2132 1098 1808 609 821 2404 10898 135 2657 676 576 11681 3833 7158 10490 2178 3475 1913 2347 1001 11489 2320 2325 474 960 1230 9600 1127 12105 2827 11268 2214 34066 1076 14469 2115 726 1243 1657 1488 2143 1667 1627 407 9861 464 1468 7739 1677 334 685
internal_value=-0.00578821 0.00863544 -0.0267917 0.0152677 -0.0367042 -0.0226095 0.0226053 0.0177826 0.00401379 0.0145773 0.0228227 0.0100818 0.00649584 -0.043073 -0.0362925 -0.0368206 0.000902523 0.0073406 -0.0268794 0.0122044 0.0229238 0.00644611 -0.0348081 -0.0398314 -0.0368191 -0.0306867 0.00311162 -0.00137024 -0.00177916 0.0157787 0.0198605 0.017442 0.0376254 0.0363162 0.0279176 0.0114323 -0.00214143 0.000661283 0.0170668 -0.0390628 0.0295086 0.0314326 -0.00477267 -0.0470561 -0.0123583 -0.0052803 -0.0335282 0.0293212 -0.00215877 -0.00698887 0.00395644 -0.0148277 -0.0134858 -0.0270345 0.00213487 -0.00395602 -0.0288049 0.0372518 0.0130369 0.0205106 0.0132024 -0.000632911
internal_weight=259760 177124 27930 149194 82636 25751 90296 68339 58898 61091 21555 39536 8443 56885 21011 17308 52680 16912 1233 7210 6014 5411 24823 15411 11578 13142 4835 15468 4606 4024 3348 24068 21957 19637 3759 1434 35768 18895 2764 18735 16949 14122 4127 35874 1897 16873 6630 1799 16131 6531 2731 3800 2276 4420 1637 11993 4515 3107 9883 14185 2696 1019
internal_count=259760 177124 27930 149194 82636 25751 90296 68339 58898 61091 21555 39536 8443 56885 21011 17308 52680 16912 1233 7210 6014 5411 24823 15411 11578 13142 4835 15468 4606 4024 3348 24068 21957 19637 3759 1434 35768 18895 2764 18735 16949 14122 4127 35874 1897 16873 6630 1799 16131 6531 2731 3800 2276 4420 1637 11993 4515 3107 9883 14185 2696 1019
cat_boundaries=0 1 2 3 4 5 6 7 8 9 10 11 12
cat_threshold=41697764 7864641 6815808 1048832 25363483 3 1048832 4 1048832 25411072 6815840 25363483
is_linear=0
shrinkage=0.05


Tree=5
num_leaves=63
num_cat=14
split_feature=13 6 10 11 13 6 11 11 3 6 6 6 12 7 7 6 2 11 6 1 2 6 7 7 3 7 7 11 6 7 7 6 6 6 6 11 6 6 6 6 6 1 6 7 7 6 6 6 11 6 7 7 10 11 2 2 11 2 11 2 11 1
split_gain=55593.8 7433.45 4961.99 5042.24 3720.28 2475.68 1110.7 1089.19 2621.93 1013.98 1405.96 925.699 602.005 578.591 3448.5 1023.15 495.498 888.559 306.386 284.083 256.745 241.994 221.332 1288.27 210.685 178.028 1060.02 174.924 159.685 138.882 715.516 138.22 211.533 138.012 134.031 119.873 111.305 98.7681 90.9228 113.763 87.2534 77.6969 77.3088 76.3676 331.581 68.195 68.178 64.9434 64.2033 64.1475 62.6666 531.543 62.3115 60.9098 60.085 56.4734 228.814 232.212 66.5067 62.7248 93.3333 272.161
threshold=0 211.50000000000003 1.0000000180025095e-35 1 2 125.50000000000001 3 4 4.5000000000000009 182.50000000000003 161.50000000000003 205.50000000000003 5 5.5000000000000009 6.5000000000000009 212.50000000000003 -0.9159756150367534 6 230.50000000000003 -0.60355339059327362 -0.98296291314453399 223.50000000000003 5.5000000000000009 6.5000000000000009 4.5000000000000009 5.5000000000000009 6.5000000000000009 7 175.50000000000003 5.5000000000000009 6.5000000000000009 135.50000000000003 161.50000000000003 257.50000000000006 125.50000000000001 8 126.50000000000001 208.50000000000003 186.50000000000003 202.50000000000003 220.50000000000003 0.37940952255126054 163.50000000000003 5.5000000000000009 6.5000000000000009 140.50000000000003 148.50000000000003 200.50000000000003 9 129.50000000000003 5.5000000000000009 6.5000000000000009 1.0000000180025095e-35 10 -0.98296291314453399 -0.70710678118654757 11 -0.5 12 -0.5 13 0.78656609248549325
decision_type=9 2 2 9 9 2 9 9 2 2 2 2 1 2 2 2 2 9 2 2 2 2 2 2 2 2 2 9 2 2 2 2 2 2 2 9 2 2 2 2 2 2 2 2 2 2 2 2 9 2 2 2 2 9 2 2 9 2 9 2 9 2
left_child=4 2 3 16 7 -5 40 8 18 10 29 38 19 34 15 -15 17 20 27 24 -2 35 47 41 33 55 -27 -1 42 45 -31 -22 -33 -6 -9 -8 -16 -13 -11 -40 -3 -24 -12 -26 -45 49 -19 -10 -20 -7 -44 -52 -29 -36 -32 58 57 -57 -18 -58 -61 -62
right_child=1 6 -4 5 12 9 21 13 22 11 28 37 -14 14 36 -17 25 46 48 -21 31 -23 23 -25 43 26 -28 52 -30 30 54 32 -34 -35 53 -37 -38 -39 39 -41 -42 -43 50 44 -46 -47 -48 -49 -50 -51 51 -53 -54 -55 -56 56 59 -59 -60 60 61 -63
leaf_value=0.1547561875 0.16177462500000001 0.07987809374999999 -0.12013967187500003 0.15717934375000001 -0.038689046874999994 0.077378093749999988 -0.077378093749999988 -0.038689046874999994 -0.077378093749999988 0.077378093749999988 0.038796218749999993 0.03891496874999998 -0.11606714062500001 0.22269721875000004 -0.038689046874999994 -0.034509343749999991 -0.038689046874999994 0.040725312499999999 0.040945296875000016 -0.077378093749999988 0.019332171875000005 -0.077378093749999988 0.17995315625 -0.077378093749999988 -0.11606714062500001 0.11944467187500002 0 0.045719671875000013 0.041159343749999994 0.20553310937499997 0.077378093749999988 0.12319274999999999 0.037110874999999988 -0.077378093749999988 -0.077378093749999988 -0.03225309375000001 -0.077378093749999988 0.038552468750000027 0.11821057812500001 0.079747765624999967 0.0026071718749999919 0.029709406250000004 -0.0019290937499999883 0.050407859374999968 -0.11606714062500001 0.077378093749999988 0 -0.084509343750000021 -0.001780328124999997 0.038689046874999994 0.115158109375 -0.0019290937499999883 -0.12431282812500002 -0.077378093749999988 0.038689046874999994 0 0 0.1547561875 0 -0.032134343750000016 0.077378093749999988 -0.038689046874999994
leaf_weight=1131 2208 695 3148 20810 3085 1681 908 2318 3933 3072 1566 2337 36961 2141 1422 1414 1445 5615 728 9643 744 5755 735 2917 1445 4232 13460 2191 5435 3053 3157 2577 1112 1548 4316 3166 9521 2313 12261 2304 1494 240 5123 292 860 8830 6281 866 1446 4636 993 3217 45 10896 6427 965 5792 665 8652 2103 791 744
leaf_count=1131 2208 695 3148 20810 3085 1681 908 2318 3933 3072 1566 2337 36961 2141 1422 1414 1445 5615 728 9643 744 5755 735 2917 1445 4232 13460 2191 5435 3053 3157 2577 1112 1548 4316 3166 9521 2313 12261 2304 1494 240 5123 292 860 8830 6281 866 1446 4636 993 3217 45 10896 6427 965 5792 665 8652 2103 791 744
internal_value=-0.00575248 0.0125528 0.0156295 0.0169815 -0.0349685 0.0245542 -0.0252615 -0.0245535 -0.0130174 0.019841 0.0154493 0.0285342 -0.0439119 -0.0296739 -0.0222922 0.0204903 0.00546718 0.0121942 0.0138501 -0.0359795 0.0268294 -0.0324161 -0.0301625 -0.0212983 -0.0285051 0.00225861 0.00596 0.0232975 0.00380768 0.0222931 0.0261646 0.0199285 0.0238934 -0.0221115 -0.0357953 -0.0231204 -0.0361913 0.00868691 0.0337666 0.0354165 0.00697785 0.0284535 0.000316081 -0.039908 -0.0302882 0.0190627 0.00399753 -0.0373497 -0.000779633 0.0150932 -0.00140843 0.00311038 0.014957 -0.0375027 0.0194484 -0.000836362 0.00163154 0.0188678 -0.00354013 -0.00136598 -0.00651302 0.00287684
internal_weight=259861 159767 147749 144601 100094 87215 12018 46260 14232 66405 44118 22287 53834 32028 14498 3555 57386 18537 5541 16873 6641 9829 8691 3892 7230 38849 17692 3367 16334 27784 12637 4433 3689 4633 17530 4074 10943 4650 17637 14565 2189 975 10899 2597 1152 15147 11896 4799 2174 6317 9333 4210 2236 15212 9584 21157 11060 1630 10097 9430 3638 1535
internal_count=259861 159767 147749 144601 100094 87215 12018 46260 14232 66405 44118 22287 53834 32028 14498 3555 57386 18537 5541 16873 6641 9829 8691 3892 7230 38849 17692 3367 16334 27784 12637 4433 3689 4633 17530 4074 10943 4650 17637 14565 2189 975 10899 2597 1152 15147 11896 4799 2174 6317 9333 4210 2236 15212 9584 21157 11060 1630 10097 9430 3638 1535
cat_boundaries=0 1 2 3 4 5 6 7 8 9 10 11 12 13 14
cat_threshold=43 41697764 9 4194305 7864640 6 6815808 1048832 278528 1048832 33833124 1048832 1048832 33833092
is_linear=0
shrinkage=0.05


Tree=6
num_leaves=63
num_cat=12
split_feature=2 4 9 10 11 11 1 6 9 9 6 6 6 1 4 9 9 2 11 2 9 9 11 11 4 1 1 6 0 6 6 9 6 12 6 6 6 11 6 6 6 6 6 6 4 6 11 2 11 2 11 2 11 0 0 6 10 10 6 11 9 1
split_gain=46023.6 16539.9 5773.92 4924.64 4797.69 2926.48 4073.81 2177.33 1829.3 1812.66 941.113 1357.08 1260.64 623.137 612.099 592.409 548.343 461.434 883.846 277.279 261.373 233.151 221.037 175.635 171.442 264.845 169.003 158.4 154.942 145.825 227.481 139.312 138.202 136.23 132.819 128.449 123.968 122.681 106.159 99.5115 96.8968 123.177 90.4426 85.973 83.7859 83.6023 81.6214 77.9387 285.901 291.004 130.316 127.42 208.992 487.375 307.204 90.9384 71.068 66.5123 65.355 59.0672 58.0401 56.2902
threshold=-0.12940952255126037 -0.60785761079279388 1.0000000180025095e-35 1.0000000180025095e-35 0 1 -0.9159756150367534 126.50000000000001 1.0000000180025095e-35 1.0000000180025095e-35 182.50000000000003 160.50000000000003 205.50000000000003 -0.9159756150367534 -0.60785761079279388 1.0000000180025095e-35 1.0000000180025095e-35 -0.9159756150367534 2 -0.98296291314453399 1.0000000180025095e-35 1.0000000180025095e-35 3 4 -0.60785761079279388 -0.60355339059327362 -0.60355339059327362 125.50000000000001 18.500000000000004 135.50000000000003 161.50000000000003 1.0000000180025095e-35 137.50000000000003 5 223.50000000000003 175.50000000000003 163.50000000000003 6 208.50000000000003 256.50000000000006 186.50000000000003 202.50000000000003 221.50000000000003 233.50000000000003 -0.60785761079279388 129.50000000000003 7 -0.70710678118654757 8 -0.5 9 -0.5 10 16.500000000000004 16.500000000000004 197.50000000000003 1.0000000180025095e-35 1.0000000180025095e-35 255.50000000000003 11 1.0000000180025095e-35 -0.60355339059327362
decision_type=2 2 2 2 9 9 2 2 2 2 2 2 2 2 2 2 2 2 9 2 2 2 9 9 2 2 2 2 2 2 2 2 2 1 2 2 2 9 2 2 2 2 2 2 2 2 9 2 9 2 9 2 9 2 2 2 2 2 2 9 2 2
left_child=1 2 23 4 9 6 14 31 10 17 11 32 40 15 21 34 24 18 19 -3 22 -2 43 27 -8 39 58 -1 57 -21 -31 -6 45 61 37 36 -13 44 -14 59 -12 -42 -17 56 -7 -9 -4 50 49 55 -19 -50 54 -54 -53 -49 -16 -24 -18 -26 -35 -15
right_child=5 3 46 -5 7 13 16 8 -10 -11 12 35 38 33 20 42 26 47 -20 29 -22 -23 28 -25 25 -27 -28 -29 -30 30 -32 -33 -34 60 -36 -37 -38 -39 -40 -41 41 -43 -44 -45 -46 -47 -48 48 51 -51 -52 52 53 -55 -56 -57 -58 -59 -60 -61 -62 -63
leaf_value=-0.036754594531249983 -0.062300049218750035 0.10368589374999999 0.25906235781250003 -0.11413268828125003 0.10810100156249998 -0.12100918906249998 -0.11026378359375003 0.073509189062499966 0.20154572109375002 0.12298493828125001 0.073509189062499966 0.036856407812499992 0.036969220312499988 -0.030318641406250027 0.14701837812499999 0.0058098734375000129 0.043971875781250017 -0.038689046874999994 0 -0.0089751085937499926 0.17992312578125 0.14788746640624997 0.036607017187500014 -0.073509189062499966 -0.06921131484375001 -0.073509189062499966 -0.030640439062499983 -0.073509189062499966 -0.0023981867187499841 0.067033112499999992 0.032755331250000012 0.3593469078125 0.073509189062499966 -0.11026378359375003 -0.073509189062499966 0.034707626562499996 -0.0018326390624999968 -0.073509189062499966 -0.0060001546874999707 -0.073509189062499966 0.11015661171875002 0.071354439843749992 -0.032783876562499994 0.033898032031250018 -0.073509189062499966 0.036754594531249983 0.12357454531250001 0 0 0.14701837812499999 0 0.038689046874999994 -0.038689046874999994 0.073509189062499966 -0.075765439062499995 0.07930124999999999 -0.10660196796874999 -0.11809718671875002 -0.03322948593749997 -0.036754594531249983 -0.065138783593750027 -0.071365751562499982
leaf_weight=2771 1063 1971 1653 3185 19212 446 3871 2049 7272 6301 2742 2095 2080 657 1188 611 494 2358 10600 658 750 134 2370 11631 385 7108 1092 10352 2364 2294 991 2362 15801 30389 12193 4848 8340 2167 3134 1622 10919 2049 1684 380 3981 5505 1460 1186 9456 1084 14170 1627 1214 1406 2121 386 29 55 300 2404 3697 1144
leaf_count=2771 1063 1971 1653 3185 19212 446 3871 2049 7272 6301 2742 2095 2080 657 1188 611 494 2358 10600 658 750 134 2370 11631 385 7108 1092 10352 2364 2294 991 2362 15801 30389 12193 4848 8340 2167 3134 1622 10919 2049 1684 380 3981 5505 1460 1186 9456 1084 14170 1627 1214 1406 2121 386 29 55 300 2404 3697 1144
internal_value=-0.00596297 0.00839812 -0.0269653 0.0149937 0.0163334 -0.0367942 -0.0227231 0.0236569 0.0192012 0.00513106 0.0163106 0.0116852 0.0248515 -0.0431078 0.00598157 -0.0362912 -0.036582 0.00203592 0.0089254 0.024391 0.0115322 -0.027103 0.00825152 -0.0350364 -0.0397005 -0.0366387 -0.0111314 -0.0309329 0.00284324 0.0167749 0.0210785 0.0374706 0.0192654 -0.047124 -0.0392208 0.000101092 -0.00302297 -0.0334989 0.00354711 -0.0270103 0.0319218 0.0337285 -0.0123067 0.0242953 -0.0284521 0.0137005 0.0372121 -0.00121386 0.00101704 0.0161641 -0.00370853 -0.00153435 -0.00700287 0.00383826 -0.0145539 0.00247758 0.0309301 0.0117294 0.00641607 -0.0212775 -0.0478528 -0.0328778
internal_weight=259861 177283 27867 149416 146231 82578 25609 88408 66834 57823 59562 38638 20924 56969 8333 21082 17276 51522 16514 5914 7136 1197 6386 24754 15390 11519 1886 13123 4789 3943 3285 21574 23355 35887 18787 15283 10435 6594 5214 4411 15710 12968 2295 1597 4427 7554 3113 35008 18480 2656 16528 15824 6368 2620 3748 1572 1217 2425 794 2789 34086 1801
internal_count=259861 177283 27867 149416 146231 82578 25609 88408 66834 57823 59562 38638 20924 56969 8333 21082 17276 51522 16514 5914 7136 1197 6386 24754 15390 11519 1886 13123 4789 3943 3285 21574 23355 35887 18787 15283 10435 6594 5214 4411 15710 12968 2295 1597 4427 7554 3113 35008 18480 2656 16528 15824 6368 2620 3748 1572 1217 2425 794 2789 34086 1801
cat_boundaries=0 1 2 3 4 5 6 7 8 9 10 11 12
cat_threshold=41697764 7864641 6815808 1048832 25363483 4 25411072 25363483 1048832 1048832 33833092 1
is_linear=0
shrinkage=0.05


Tree=7
num_leaves=63
num_cat=19
split_feature=13 6 12 9 13 6 9 13 9 12 3 6 6 6 12 12 6 12 12 6 6 6 12 0 6 6 12 12 9 6 12 6 1 3 1 9 6 6 4 7 7 6 12 6 6 6 12 6 6 6 6 4 7 7 6 9 12 12 12 6 6 12
split_gain=54377 6936.16 4778.12 4302.75 3145.25 2206.12 2029.96 1925.38 1580.47 983.67 2681.25 952.566 1313.82 1169.53 944.478 505.449 479.923 431.091 339.419 247.544 242.774 238.431 631.052 761.788 366.117 330.273 919.62 894.201 222.449 186.364 187.225 177.038 176.06 281.415 162.407 158.889 139.099 133.22 127.633 227.059 745.216 126.133 121.703 118.395 115.13 104.983 98.4579 98.1364 95.7058 118.843 88.1229 86.2017 160.299 482.982 82.8109 74.3177 71.7987 63.244 58.4418 58.1338 58.0561 56.7345
threshold=0 214.50000000000003 1 1.0000000180025095e-35 2 126.50000000000001 1.0000000180025095e-35 3 1.0000000180025095e-35 4 4.5000000000000009 182.50000000000003 160.50000000000003 205.50000000000003 5 6 219.50000000000003 7 8 230.50000000000003 125.50000000000001 162.50000000000003 9 15.500000000000002 195.50000000000003 135.50000000000003 10 11 1.0000000180025095e-35 118.50000000000001 12 122.50000000000001 -0.60355339059327362 4.5000000000000009 -0.60355339059327362 1.0000000180025095e-35 223.50000000000003 137.50000000000003 0.87837969732492682 6.5000000000000009 7.5000000000000009 175.50000000000003 13 163.50000000000003 256.50000000000006 198.50000000000003 14 208.50000000000003 186.50000000000003 202.50000000000003 225.50000000000003 0.87837969732492682 6.5000000000000009 7.5000000000000009 129.50000000000003 1.0000000180025095e-35 15 16 17 254.50000000000003 199.50000000000003 18
decision_type=9 2 1 2 9 2 2 9 2 1 2 2 2 2 1 1 2 1 1 2 2 2 1 2 2 2 1 1 2 2 1 2 2 2 2 2 2 2 2 2 2 2 1 2 2 2 1 2 2 2 2 2 2 2 2 2 1 1 1 2 2 1
left_child=3 2 5 7 16 35 21 9 11 10 19 12 37 48 55 34 -5 -18 32 42 57 25 23 58 -24 26 29 -27 36 -4 -31 -28 33 44 59 38 56 54 -2 -40 -41 43 -1 -14 -9 -12 50 -15 -13 -50 -22 -39 -53 -54 -7 -3 -16 -11 -23 -6 -25 -21
right_child=1 14 6 4 15 8 -8 18 -10 20 45 13 41 47 28 -17 17 -19 -20 61 46 22 24 60 -26 27 31 -29 -30 30 -32 -33 -34 -35 -36 -37 -38 51 39 40 -42 -43 -44 -45 -46 -47 -48 -49 49 -51 -52 52 53 -55 -56 -57 -58 -59 -60 -61 -62 -63
leaf_value=0.13966745921874998 0.10269595148437499 0.0025967226171875082 0.050000000000000003 0.16453302117187502 0.048131217929687491 0.069833729609374978 0.11683569136718752 -0.034916864804687475 0.1914684350390625 -0.034916864804687475 -0.069833729609374978 0.069833729609374978 0.035013587421874992 0.035120759296874991 -0.047509868828125024 -0.061881844414062526 -0.031144682734374984 0.1709269694921875 -0.10475059441406252 0.032203130429687525 -0.069833729609374978 0 0 0.050000000000000003 -0.050000000000000003 0.0985015990625 -0.050000000000000003 0 -0.029001245234374973 0.047500000000000014 -0.036754594531249983 -0.0085263531640624949 -0.069833729609374978 -0.10475059441406252 -0.029108417109374975 0.34137956242187495 -0.069833729609374978 0.069833729609374978 0.10269595148437499 -0.065664475742187478 0.10269595148437499 0.032972245234374989 0.034472087421874999 -0.0017410071093749925 -0.069833729609374978 -0.074589979609374996 -0.069833729609374978 -0.0057001469531249745 0.10464878113281251 0.067786717851562497 -0.069833729609374978 0.069833729609374978 -0.11316447574218749 0.069833729609374978 0.034916864804687475 0.1263695007421875 -0.069833729609374978 -0.074024431953125011 -0.036754594531249983 -0.03156801164062497 0.073702634296874986 -0.0040714023828124727
leaf_weight=1014 15894 1764 5625 3509 556 2098 6289 2530 7239 2151 6208 2814 2147 2138 2109 3672 1085 525 32936 651 13801 4876 7778 1871 3982 4547 3673 8143 933 4012 1136 2184 8589 2305 1238 2362 5148 13132 2375 460 943 4960 1997 8531 1617 1508 7034 2943 11188 2102 3954 1909 405 760 5637 200 614 1533 1950 391 2896 1290
leaf_count=1014 15894 1764 5625 3509 556 2098 6289 2530 7239 2151 6208 2814 2147 2138 2109 3672 1085 525 32936 651 13801 4876 7778 1871 3982 4547 3673 8143 933 4012 1136 2184 8589 2305 1238 2362 5148 13132 2375 460 943 4960 1997 8531 1617 1508 7034 2943 11188 2102 3954 1909 405 760 5637 200 614 1533 1950 391 2896 1290
internal_value=-0.00619887 0.011905 0.0147064 -0.0350934 -0.00555707 0.0219512 0.00363892 -0.0387351 0.0174984 -0.0307658 -0.0191271 0.0148672 0.0102869 0.0234242 -0.0268474 -0.0305509 0.0230538 0.000493758 -0.0455528 0.00957069 -0.0359352 0.000433713 -0.00333553 0.00494221 -0.0114906 0.00343604 -0.00119933 0.00951096 -0.0338202 0.00746956 0.000601193 -0.0171286 -0.0391696 -0.0329497 -0.0113639 0.0357035 -0.0365953 0.0176494 0.034231 0.0259641 0.01001 -0.000984455 0.0185464 -0.0040452 -0.025161 -0.0375701 -0.0377281 0.00250832 0.0300231 0.0317977 -0.0356004 0.0202266 0.012685 -0.00192687 0.0122487 0.00455651 -0.0274485 -0.0239665 -0.00576391 0.00416535 0.0202838 -0.00435063
internal_weight=259861 159767 148999 100094 10976 90037 58962 89118 68003 41141 12668 60764 39579 21185 10768 5857 5119 1610 47977 4952 28473 52673 23353 11593 11760 29320 16630 12690 8804 10773 5148 5857 15041 6452 2185 22034 7871 23941 19672 3778 1403 15638 3011 10678 4147 7716 24789 5081 16104 13290 17755 16206 3074 1165 7735 1964 2723 3684 6826 947 4767 1941
internal_count=259861 159767 148999 100094 10976 90037 58962 89118 68003 41141 12668 60764 39579 21185 10768 5857 5119 1610 47977 4952 28473 52673 23353 11593 11760 29320 16630 12690 8804 10773 5148 5857 15041 6452 2185 22034 7871 23941 19672 3778 1403 15638 3011 10678 4147 7716 24789 5081 16104 13290 17755 16206 3074 1165 7735 1964 2723 3684 6826 947 4767 1941
cat_boundaries=0 1 2 3 4 5 6 7 8 9 10 11 12 13 14 15 16 17 18 19
cat_threshold=43 17 9 9 6 20 22 9 6 6 10 4 8 2 17 1 1 4 2
is_linear=0
shrinkage=0.05


Tree=8
num_leaves=63
num_cat=14
split_feature=2 3 9 10 9 11 11 2 6 6 6 3 9 2 11 6 2 9 2 9 9 6 6 6 11 6 11 3 2 10 11 6 6 6 11 6 6 6 3 6 6 11 11 6 2 6 6 3 11 11 6 9 11 6 2 11 6 9 2 2 11 2
split_gain=37613.9 15041.2 5365.54 4572.97 3642.69 3278.63 2210.97 3827.35 1026.75 1441.66 742.589 609.829 450.782 374.318 648.406 309.385 287.567 309.18 257.306 240.39 218.482 214.978 195.238 261.139 175.635 158.4 154.299 152.265 134.476 120.011 121.562 118.565 124.118 114.121 104.892 102.686 95.1523 88.0971 94.6452 88.0381 137.11 87.0965 84.2523 77.393 76.7547 116.229 76.5508 78.8598 73.6547 62.1259 58.8805 57.3578 50.4495 49.1209 45.3708 47.7618 44.1647 42.1232 137.792 41.8427 176.907 455.618
threshold=-0.12940952255126037 4.5000000000000009 1.0000000180025095e-35 1.0000000180025095e-35 1.0000000180025095e-35 0 1 0.37940952255126026 159.50000000000003 180.50000000000003 206.50000000000003 4.5000000000000009 1.0000000180025095e-35 -0.9159756150367534 2 102.50000000000001 1.0000000180025095e-35 1.0000000180025095e-35 0.78656609248549303 1.0000000180025095e-35 1.0000000180025095e-35 228.50000000000003 135.50000000000003 161.50000000000003 3 125.50000000000001 4 4.5000000000000009 0.78656609248549303 1.0000000180025095e-35 5 122.50000000000001 140.50000000000003 163.50000000000003 6 175.50000000000003 129.50000000000003 257.50000000000006 4.5000000000000009 196.50000000000003 186.50000000000003 7 8 209.50000000000003 -0.78656609248549325 161.50000000000003 220.50000000000003 4.5000000000000009 9 10 208.50000000000003 1.0000000180025095e-35 11 146.50000000000003 -0.9159756150367534 12 255.50000000000003 1.0000000180025095e-35 0.37940952255126026 -0.70710678118654757 13 -0.60355339059327384
decision_type=2 2 2 2 2 9 9 2 2 2 2 2 2 2 9 2 2 2 2 2 2 2 2 2 9 2 9 2 2 2 9 2 2 2 9 2 2 2 2 2 2 9 9 2 2 2 2 2 9 9 2 2 9 2 2 9 2 2 2 2 9 2
left_child=1 3 24 4 5 13 7 11 15 33 39 19 18 14 22 -7 17 41 37 21 -13 29 -1 -24 25 -3 54 57 56 30 -2 52 36 -10 -12 -35 -33 38 49 40 -11 46 -23 44 45 -28 47 -8 -42 -9 -36 -29 -17 -16 55 -6 -14 -18 -59 -15 61 -61
right_child=6 2 -4 -5 26 8 16 12 9 10 34 20 28 59 53 31 27 -19 -20 -21 -22 42 23 -25 -26 -27 43 51 -30 -31 -32 32 -34 35 50 -37 -38 -39 -40 -41 48 -43 -44 -45 -46 -47 -48 -49 -50 -51 -52 -53 -54 -55 -56 -57 -58 58 -60 60 -62 -63
leaf_value=-0.0081000355058593598 0.13268408625781247 -0.033171021564453111 0.16130637011328128 -0.10658832414062502 0.062429874767578136 0.1387805289101563 -0.024589486167968744 -0.060513219380859386 0.033262908050781248 0.066342043128906222 0.085143579144531259 -0.053947517037109406 0.033226933517578126 0 0.036314046874999999 0.04756115391015623 -0.099513064693359396 -0.029587448597656232 -0.066342043128906222 0.16331536945507813 0.1380865321894531 0.035592973908203152 0.09357651910937502 0.02619248473437499 -0.066342043128906222 -0.066342043128906222 0.18036199609960937 -0.099513064693359396 -0.027652996253906229 -0.10924114643750001 0.034646830197265645 0.066342043128906222 0.066342043128906222 -0.0016539567539062495 0.033364721332031236 0.035717382972656232 0.033171021564453111 -0.066342043128906222 -0.099513064693359396 0.068803319458984352 0.049416342076171876 -0.066342043128906222 -0.0024081135136718502 0.062668540269531239 0.27856058430078118 0.089749496099609388 -0.066342043128906222 -0.11146704312890623 0.10155977957617189 -0.033171021564453111 -0.0054151396054687335 -0.05878775219335939 0.095530528910156232 0 0.10148140679882811 0.16446614039257815 -0.029989611058593726 -0.029587448597656232 -0.05878775219335939 -0.047500000000000014 -0.0024999999999999914 0.087167459218750007
leaf_weight=658 857 2771 3113 3185 278 4093 2455 414 2775 4121 469 1063 494 16528 4416 1130 33228 1145 8824 750 134 719 4265 991 11631 10352 3552 8129 1092 81 2564 4818 13048 8340 1270 3469 7578 1949 1604 6849 647 2963 2165 296 4310 1480 3693 320 6151 2599 2796 1019 11220 6184 4274 1745 300 1021 2996 1171 14797 2512
leaf_count=658 857 2771 3113 3185 278 4093 2455 414 2775 4121 469 1063 494 16528 4416 1130 33228 1145 8824 750 134 719 4265 991 11631 10352 3552 8129 1092 81 2564 4818 13048 8340 1270 3469 7578 1949 1604 6849 647 2963 2165 296 4310 1480 3693 320 6151 2599 2796 1019 11220 6184 4274 1745 300 1021 2996 1171 14797 2512
internal_value=-0.00651558 0.00646731 -0.027256 0.012757 0.0140479 0.0112881 -0.034388 -0.0221532 0.0177015 0.0116205 0.0196136 0.00566956 -0.0355864 0.00147859 0.00768404 0.0230607 -0.0398768 -0.0324406 -0.038414 0.0112099 -0.0273536 0.00806361 0.0209306 0.0241805 -0.0350364 -0.0309329 0.0366138 -0.0415804 -0.0125099 0.0163887 0.0178144 0.0216461 0.019694 -0.000603054 0.00155344 -0.00274746 0.0161095 -0.0309156 -0.027148 0.0242229 0.0270118 -0.0354195 -0.00204397 0.0406811 0.0415212 0.0373194 -0.0319067 -0.0256729 0.0313757 -0.0219193 -0.0010537 -0.0473645 0.0256674 0.000272853 0.0302746 0.0365009 0.00314192 -0.0401595 -0.0353103 -0.00144809 0.000186417 0.00997671
internal_weight=259861 177283 27867 149416 146231 130296 82578 25609 78774 36887 22303 8333 17276 51522 16514 41887 56969 10576 15390 7136 1197 6386 5914 5256 24754 13123 15935 46393 1886 3502 3421 37794 25444 14584 4535 11809 12396 6566 4617 17768 10919 9431 2884 9638 9342 5032 6468 2775 6798 3013 4066 9148 12350 10600 6297 2023 794 37245 4017 35008 18480 3683
internal_count=259861 177283 27867 149416 146231 130296 82578 25609 78774 36887 22303 8333 17276 51522 16514 41887 56969 10576 15390 7136 1197 6386 5914 5256 24754 13123 15935 46393 1886 3502 3421 37794 25444 14584 4535 11809 12396 6566 4617 17768 10919 9431 2884 9638 9342 5032 6468 2775 6798 3013 4066 9148 12350 10600 6297 2023 794 37245 4017 35008 18480 3683
cat_boundaries=0 1 2 3 4 5 6 7 8 9 10 11 12 13 14
cat_threshold=41697764 7864641 6815808 25363483 41697732 1048832 3 25411072 1048832 3 1 3 1048832 1048896
is_linear=0
shrinkage=0.05


Tree=9
num_leaves=63
num_cat=22
split_feature=13 0 10 9 9 11 13 13 11 6 6 11 6 11 12 13 6 11 6 6 6 6 6 9 6 6 11 12 6 12 11 6 6 11 6 6 6 6 6 11 11 6 6 6 6 6 0 6 0 9 6 6 11 10 10 11 6 6 6 11 11 11
split_gain=45323.7 6223.92 4511.28 3645.33 3502.04 3085.86 2993.71 1324.48 3042.11 1244 1182.7 911.795 594.142 502.861 481.115 322.753 309.385 252.849 1106.83 535.035 344.022 306.386 239.003 213.285 185.391 185.074 504.258 183.164 151.128 376.41 138.919 118.565 124.118 118.432 226.24 203.823 116.956 114.121 112.685 108.574 104.892 102.686 102.615 95.1523 87.9995 87.1302 82.4609 77.4342 70.7989 68.3408 58.8805 57.6056 56.7345 56.129 54.5942 53.4454 60.1985 73.5041 57.8086 51.5125 50.4495 49.7654
threshold=0 17.500000000000004 1.0000000180025095e-35 1.0000000180025095e-35 1.0000000180025095e-35 1 2 3 4 159.50000000000003 180.50000000000003 5 206.50000000000003 6 7 8 102.50000000000001 9 133.50000000000003 161.50000000000003 116.50000000000001 193.50000000000003 230.50000000000003 1.0000000180025095e-35 258.50000000000006 204.50000000000003 10 11 210.50000000000003 12 13 122.50000000000001 140.50000000000003 14 195.50000000000003 148.50000000000003 259.50000000000006 163.50000000000003 122.50000000000001 15 16 175.50000000000003 223.50000000000003 129.50000000000003 137.50000000000003 221.50000000000003 1.0000000180025095e-35 209.50000000000003 18.500000000000004 1.0000000180025095e-35 208.50000000000003 198.50000000000003 17 1.0000000180025095e-35 1.0000000180025095e-35 18 199.50000000000003 182.50000000000003 201.50000000000003 19 20 21
decision_type=9 2 2 2 2 9 9 9 9 2 2 9 2 9 1 9 2 9 2 2 2 2 2 2 2 2 9 1 2 1 9 2 2 9 2 2 2 2 2 9 9 2 2 2 2 2 2 2 2 2 2 2 9 2 2 9 2 2 2 9 9 9
left_child=4 2 3 5 7 17 13 8 22 16 37 49 55 -6 36 24 -7 18 38 44 -19 -21 39 42 30 33 -27 47 59 -30 -9 60 43 34 -22 -35 48 -11 -2 53 -14 -39 -13 -33 -20 61 -32 -5 -8 -3 -42 -37 -24 -1 -41 58 57 -57 -12 -15 -18 -10
right_child=1 11 -4 27 6 9 14 15 45 10 12 23 40 28 -16 -17 31 20 19 21 25 -23 52 -25 -26 26 -28 -29 29 -31 46 32 -34 35 -36 51 -38 41 -40 54 50 -43 -44 -45 -46 -47 -48 -49 -50 -51 -52 -53 -54 -55 -56 56 -58 -59 -60 -61 -62 -63
leaf_value=0.12604988194492184 -0.047375000000000014 0.0025872921620117232 -0.10125890793359378 0.21463255508574217 -0.028108076167773423 0.13184150246464849 -0.026270346441210915 -0.094537411458691434 -0.063024940972460905 0.031599762648242179 0.045976176103222646 -0.063024940972460905 0.080886400187304697 0.22981727035761718 -0.055848364583691426 -0.094537411458691434 0.045183096214648402 0.047625000000000008 0.037304966269433602 0 -0.032982412460937471 0.065659129621093729 0.028813325212792985 -0.02607181054277341 -0.094537411458691434 0.08936176391796874 -0.069352167109375015 0.10591983645888675 -0.028108076167773423 0.16736542730458984 -0.063024940972460905 0.063024940972460905 0.063024940972460905 0.036873344531249998 0.067292682824218741 0 -0.026270346441210915 -0.0015712589162109271 -0.0076950337305663925 0.031016141540917964 0.031696485265429675 0.033931513824023422 -0.061366389894238239 0.031512470486230452 0.088897693153906276 -0.061366389894238239 -0.063024940972460905 0.059535113256054678 0.019726119494335937 0.10514960098232423 -0.0051443826251952986 -0.047375000000000014 -0.0037474265879882565 -0.10377908911562501 -0.10845387443203131 0.02800653081621092 0.060957215986035145 0.095976176103222649 0.095976176103222649 0.10110384848261721 0.090754002464648403 -0.015112568820507778
leaf_weight=991 3589 1699 3185 9338 820 4093 228 11231 816 2775 1359 2416 469 1581 3672 12539 1130 4893 650 5277 5157 3033 651 897 20981 467 1881 6301 599 728 2743 4818 13048 7340 582 11514 1181 8340 1816 1952 1270 3469 5148 7578 3935 7533 26749 296 776 191 2796 1388 1290 23 45 1251 4349 10474 335 1391 11220 1574
leaf_count=991 3589 1699 3185 9338 820 4093 228 11231 816 2775 1359 2416 469 1581 3672 12539 1130 4893 650 5277 5157 3033 651 897 20981 467 1881 6301 599 728 2743 4818 13048 7340 582 11514 1181 8340 1816 1952 1270 3469 5148 7578 3935 7533 26749 296 776 191 2796 1388 1290 23 45 1251 4349 10474 335 1391 11220 1574
internal_value=-0.0067078 0.00982052 0.0124186 0.0137009 -0.0330875 0.01094 -0.00644081 -0.036373 -0.0226969 0.017162 0.0104683 -0.0276729 0.0177081 0.0214745 -0.0308236 -0.0391047 0.0230607 0.00142329 0.00614115 0.0141057 -0.00117642 0.00653963 0.00930957 -0.0346643 -0.0375845 -0.00329149 -0.0167348 0.036275 0.0283226 0.0143508 -0.0356222 0.0216461 0.019694 -0.00207632 -0.00840914 -0.000276268 -0.0120928 -0.000603054 -0.0128481 0.0181479 0.00155344 -0.00274746 -0.0374394 0.0161095 0.0278173 -0.0386632 -0.0337364 0.0406876 0.000393387 0.00378664 -0.0010537 -0.00406097 -0.00435063 0.0314374 0.0111828 0.021831 0.0227302 0.0246092 0.0130832 0.0346539 0.0256674 -0.0303732
internal_weight=259861 159767 149416 146231 100094 130296 10976 89118 14875 78774 36887 10351 22303 5119 5857 74243 41887 51522 18300 12895 33222 8310 4952 8461 61704 28329 2348 15935 4299 1327 40723 37794 25444 25981 5739 20242 2185 14584 5405 3011 4535 11809 7564 12396 4585 9923 29492 9634 1004 1890 4066 12902 1941 1014 1997 17768 16074 11725 1694 2972 12350 2390
internal_count=259861 159767 149416 146231 100094 130296 10976 89118 14875 78774 36887 10351 22303 5119 5857 74243 41887 51522 18300 12895 33222 8310 4952 8461 61704 28329 2348 15935 4299 1327 40723 37794 25444 25981 5739 20242 2185 14584 5405 3011 4535 11809 7564 12396 4585 9923 29492 9634 1004 1890 4066 12902 1941 1014 1997 17768 16074 11725 1694 2972 12350 2390
cat_boundaries=0 1 2 3 4 5 6 7 8 9 10 11 12 13 14 15 16 17 18 19 20 21 22
cat_threshold=43 41697764 9 8 7864640 4194305 33618560 22 33 6815808 1048832 17 9 33880740 1048832 1048832 3 1048832 3 25363483 3 33570976
is_linear=0
shrinkage=0.05


Tree=10
num_leaves=63
num_cat=17
split_feature=13 0 10 12 13 6 6 12 3 12 6 7 7 6 6 12 1 7 7 6 6 7 7 6 6 6 6 6 6 6 10 3 3 6 12 6 0 6 12 12 13 12 12 7 7 12 12 6 6 6 12 6 12 6 3 6 12 6 6 6 6 6
split_gain=44855.9 6216.25 4245.02 3373.14 2193.98 1235.84 1251.15 989.352 2523.11 861.873 739.146 499.368 2900.97 783.595 364.933 230.751 428.888 228.94 1341.89 225.209 154.921 153.892 998.562 135.796 124.308 122.871 118.233 114.2 97.7871 95.5551 90.1048 89.5504 88.8673 84.9488 264.087 340.117 239.256 184.046 320.322 296.778 90.4505 188.031 80.1106 77.7207 443.031 68.8204 68.796 65.2816 61.9148 60.0511 59.2158 58.9878 70.5669 58.3872 58.0651 55.3429 52.0869 397.936 149.901 108.23 119.25 63.1816
threshold=0 17.500000000000004 1.0000000180025095e-35 1 2 159.50000000000003 180.50000000000003 3 4.5000000000000009 4 208.50000000000003 5.5000000000000009 6.5000000000000009 206.50000000000003 122.50000000000001 5 -0.60355339059327362 5.5000000000000009 6.5000000000000009 228.50000000000003 141.50000000000003 5.5000000000000009 6.5000000000000009 124.50000000000001 163.50000000000003 223.50000000000003 175.50000000000003 257.50000000000006 102.50000000000001 128.50000000000003 1.0000000180025095e-35 4.5000000000000009 4.5000000000000009 159.50000000000003 6 197.50000000000003 16.500000000000004 133.50000000000003 7 8 9 10 11 5.5000000000000009 6.5000000000000009 12 13 103.50000000000001 220.50000000000003 200.50000000000003 14 221.50000000000003 15 228.50000000000003 4.5000000000000009 129.50000000000003 16 133.50000000000003 145.50000000000003 154.50000000000003 197.50000000000003 205.50000000000003
decision_type=9 2 2 1 9 2 2 1 2 1 2 2 2 2 2 1 2 2 2 2 2 2 2 2 2 2 2 2 2 2 2 2 2 2 1 2 2 2 1 1 9 1 1 2 2 1 1 2 2 2 1 2 1 2 2 2 1 2 2 2 2 2
left_child=4 2 3 5 7 14 24 8 19 53 43 23 13 -13 28 16 27 33 -19 30 55 49 -23 -9 -7 -11 50 31 -2 -14 42 -6 -17 37 35 -35 -36 38 47 -39 -40 -42 -1 -8 -45 48 -21 -5 54 -10 -26 52 -15 -3 -25 -16 57 -20 -58 -59 -61 -60
right_child=1 9 -4 17 15 6 10 11 21 25 -12 12 29 51 20 32 -18 18 56 46 -22 22 -24 45 26 -27 -28 -29 -30 -31 -32 -33 -34 34 36 -37 -38 39 40 -41 41 -43 -44 44 -46 -47 -48 -49 -50 -51 -52 -53 -54 -55 -56 -57 58 59 61 60 -62 -63
leaf_value=0.11974738784767576 0.17524942734141608 0.036648670173051803 -0.09711389035136718 -0.016394938281250004 -0.02836122343760741 0.030019774515830069 0.072450722365439438 -0.02836122343760741 -0.059873693923837859 -0.059873693923837859 -0.0013468853689355465 0.17107015683973634 -0.02836122343760741 0.033200089555654302 0.061808146267587863 -0.089810540885756851 -0.059873693923837859 0.10062384463594241 -0.045006250000000005 0.032372658952153334 0.059873693923837859 0.098185859183486379 -0.059873693923837859 -0.014356940379482387 0.048507304029599622 -0.058298070399526329 0.032234938132822258 -0.058298070399526329 0.12946630234141607 -0.059873693923837859 -0.098590134659843773 -0.04652327061231936 -0.089810540885756851 0 0 0.062990641413476545 -0.068384558753906255 0.084452808496210979 -0.045006250000000005 0 0.13042783625781249 -0.029826392187499984 0.033790594659184596 0.25055596569278327 0.072459491434780282 -0.058298070399526329 -0.0010600552585888546 0.045243750000000006 -0.058298070399526329 -0.019734189720615226 -0.0014926959704003818 -0.026702672359384751 -0.080663609859384755 -0.0049170724460888332 -0.059873693923837859 0.029936846961918919 0.032654677304687497 0.084452808496210979 0 0 0.066859546100976552 -0.022253463441406263
leaf_weight=983 4629 947 3180 793 3051 3087 11749 2216 3954 2714 3468 2009 1551 392 5399 27026 9609 6290 2163 878 13902 949 2890 795 859 5743 3795 2092 13924 9361 54 2067 9975 5294 6188 2091 1284 2579 3874 4686 335 475 1945 2376 7484 4335 1739 3859 3365 878 8407 909 177 923 6881 9288 5276 1354 6862 2728 953 786
leaf_count=983 4629 947 3180 793 3051 3087 11749 2216 3954 2714 3468 2009 1551 392 5399 27026 9609 6290 2163 878 13902 949 2890 795 859 5743 3795 2092 13924 9361 54 2067 9975 5294 6188 2091 1284 2579 3874 4686 335 475 1945 2376 7484 4335 1739 3859 3365 878 8407 909 177 923 6881 9288 5276 1354 6862 2728 953 786
internal_value=-0.00679051 0.00965356 0.0122472 0.01349 -0.0330354 0.0196346 0.0133134 -0.0250317 -0.0140542 -0.0278631 0.0203032 -0.0299223 -0.0230254 0.0166743 0.0251664 -0.0399088 -0.0349124 0.00410322 0.00753613 0.0120993 0.0216217 -0.0309586 -0.0234808 -0.0355839 0.00245818 -0.0346335 0.000325011 -0.0257132 0.030628 -0.0357122 0.0214932 -0.0216868 -0.0421696 0.0012221 -0.00152419 0.00517843 -0.00814544 0.00368018 -0.000963464 0.00964818 -0.0101819 0.00499329 0.0226751 0.0237421 0.0270175 -0.0372523 0.00139276 0.00832136 -0.0349418 -0.036898 -0.00271905 -0.0109566 0.00166052 0.00292272 -0.0324898 0.0180393 0.00123471 0.00463992 -0.000664522 0.0123523 0.00790389 -0.00513788
internal_weight=259825 159744 149417 146237 100081 88367 41225 46261 14270 10327 25077 31991 14399 3487 47142 53820 16819 57870 26412 5599 28589 8671 3839 17592 16148 8457 13061 7210 18553 10912 2982 5118 37001 31458 14857 7385 7472 16601 9336 7265 4684 810 2928 21609 9860 15376 2617 4652 11041 4832 9266 1478 569 1870 7676 14687 20122 7198 12924 5035 3681 7648
internal_count=259825 159744 149417 146237 100081 88367 41225 46261 14270 10327 25077 31991 14399 3487 47142 53820 16819 57870 26412 5599 28589 8671 3839 17592 16148 8457 13061 7210 18553 10912 2982 5118 37001 31458 14857 7385 7472 16601 9336 7265 4684 810 2928 21609 9860 15376 2617 4652 11041 4832 9266 1478 569 1870 7676 14687 20122 7198 12924 5035 3681 7648
cat_boundaries=0 1 2 3 4 5 6 7 8 9 10 11 12 13 14 15 16 17
cat_threshold=43 17 9 6 20 6 6 8 4 132 2 2 17 2 16 17 4
is_linear=0
shrinkage=0.05


Tree=11
num_leaves=63
num_cat=19
split_feature=13 0 9 11 10 9 13 13 11 6 6 10 11 9 6 1 12 6 13 6 9 11 6 11 6 6 6 6 6 11 6 11 11 0 11 6 6 6 6 6 6 11 6 11 6 6 6 6 6 11 6 6 1 11 6 6 6 9 11 6 6 6
split_gain=42193.6 6057.96 4470.31 3658.37 2700.05 1762.71 1753.74 1258 3039.82 1210.42 1180.54 983.074 904.245 808.64 655.151 373.123 486.689 357.922 333.633 218.775 205.586 185.451 150.842 145.274 1001.61 352.111 294.609 297.322 142.938 135.131 134.84 424.909 130.14 357.191 128.549 113.54 108.967 106.977 105.018 102.1 101.586 95.502 92.417 80.1573 72.1827 71.965 67.6383 73.154 65.8942 65.6702 63.655 63.9659 60.6193 58.0189 57.317 56.0015 55.9399 54.7173 53.4885 51.4469 50.7837 48.6974
threshold=0 17.500000000000004 1.0000000180025095e-35 1 1.0000000180025095e-35 1.0000000180025095e-35 2 3 4 159.50000000000003 180.50000000000003 1.0000000180025095e-35 5 1.0000000180025095e-35 207.50000000000003 -0.78656609248549292 6 122.50000000000001 7 228.50000000000003 1.0000000180025095e-35 8 141.50000000000003 9 133.50000000000003 154.50000000000003 159.50000000000003 197.50000000000003 261.50000000000006 10 205.50000000000003 11 12 8.5000000000000018 13 189.50000000000003 102.50000000000001 163.50000000000003 175.50000000000003 122.50000000000001 220.50000000000003 14 223.50000000000003 15 160.50000000000003 148.50000000000003 177.50000000000003 209.50000000000003 141.50000000000003 16 98.500000000000014 118.50000000000001 1.0000000180025095e-35 17 103.50000000000001 236.50000000000003 211.50000000000003 1.0000000180025095e-35 18 129.50000000000003 121.50000000000001 182.50000000000003
decision_type=9 2 2 9 2 2 9 9 9 2 2 2 9 2 2 2 1 2 9 2 2 9 2 9 2 2 2 2 2 9 2 9 9 2 9 2 2 2 2 2 2 9 2 9 2 2 2 2 2 9 2 2 2 9 2 2 2 2 9 2 2 2
left_child=2 3 7 11 5 9 34 8 19 17 37 13 57 23 61 16 -8 36 21 43 42 -9 59 24 39 32 48 -28 29 -23 -27 -32 33 -25 -4 52 -5 -11 58 -2 49 -16 -14 -1 -7 -35 -46 -48 -26 -10 -34 54 -31 -21 -52 -18 -36 -3 -39 -19 -6 -12
right_child=1 12 6 4 60 44 15 18 40 10 14 -13 20 -15 41 -17 55 22 -20 53 -22 28 -24 25 26 30 27 -29 -30 35 31 -33 50 45 56 -37 -38 38 -40 -41 -42 -43 -44 -45 46 -47 47 -49 -50 -51 51 -53 -54 -55 -56 -57 -58 -59 -60 -61 -62 -63
leaf_value=0.11376001845529196 -0.042755937500000001 0.0027037811762155918 0.084995148216499547 0.11648695597434525 -0.047133195833798824 0.20661511369224589 -0.036005429366415508 -0.05688000922764596 -0.056958790403861537 0.028518785790038571 0.022983668157128403 -0.092714263370908254 -0.05688000922764596 0.095592652404145273 0.074250830967870593 -0.048565419310219016 0.17776361394663553 0.056783286610458464 -0.08532001384146902 0.030754026004545666 -0.021853316495658429 -0.08532001384146902 0.05688000922764596 0.13653291176757812 0.045410025883900355 0 0 0.059841109342802713 -0.08532001384146902 -0.05688000922764596 0.086006348894140591 -0.067227518316210946 -0.015575191367187503 -0.029082979337890592 0.20977289899774954 -0.05688000922764596 0.079742987224345196 0.046081938828119645 0.030623191226181137 -0.0050599695440380682 -0.055383166879550007 -0.0048198192254887756 -0.055383166879550007 0.027775804730912835 0.074605028338861831 0.0016491206230468737 0.20149919787689413 0.056625701861698713 0.095410025883900351 -0.01363909336050826 0.030365610666015619 0.035029677304687493 -0.05688000922764596 -0.0010070524956594217 0.043611016134765639 0.044495065554487769 0.043517500467520037 0.10013797455551249 -0.0014180611718803693 0.02844000461382297 -0.092258195833798823 0.07648912488388622
leaf_weight=896 3662 1661 1335 4121 399 5172 1856 9294 691 2743 1369 1239 2426 6290 397 4799 546 4814 12639 782 895 12156 12405 553 1313 15031 6195 2467 17902 6404 405 1635 398 2715 1754 9499 12431 767 3380 1817 7977 3371 5136 1769 1446 399 2702 303 2934 1330 905 8276 6254 1547 2875 485 166 209 7482 8282 1542 17182
leaf_count=896 3662 1661 1335 4121 399 5172 1856 9294 691 2743 1369 1239 2426 6290 397 4799 546 4814 12639 782 895 12156 12405 553 1313 15031 6195 2467 17902 6404 405 1635 398 2715 1754 9499 12431 767 3380 1817 7977 3371 5136 1769 1446 399 2702 303 2934 1330 905 8276 6254 1547 2875 485 166 209 7482 8282 1542 17182
internal_value=-0.00661116 0.00933744 -0.0320652 0.0118979 0.0182266 0.01951 -0.0019052 -0.0357706 -0.0225032 0.0170412 0.0104043 0.00222508 -0.0276985 0.00316908 0.0176013 -0.014929 -0.00074296 0.0228317 -0.0384448 0.00935133 -0.0346335 -0.0368917 0.0191147 0.00110498 0.00466869 -0.000870276 0.0122739 0.00698387 -0.0380783 -0.0361945 -0.00587513 -0.0179378 0.00442867 -0.00384678 0.0288031 -0.0337593 0.028558 -0.000771982 -0.00286738 -0.0132403 -0.0384084 -0.00140522 -0.0373567 0.0191531 0.0397112 -0.0104348 0.0350352 0.0393148 0.0230616 -0.0284226 0.00686331 0.0075186 -0.0368772 -0.00182259 0.0129084 0.0266497 0.0371976 0.00382692 -0.00590913 0.0153706 -0.0401035 0.0214621
internal_weight=259825 159744 100081 149417 90308 88367 10941 89140 14992 78744 36691 59109 10327 57870 22319 7686 2887 42053 74148 4994 8457 61509 25501 51580 18388 33192 12909 8662 52215 34313 17071 2040 16121 3667 3255 22157 16552 14372 11629 5479 9998 3768 7562 2665 9623 3114 4451 3005 4247 2021 12454 12056 12658 2329 3780 1031 1920 1870 8249 13096 1941 18551
internal_count=259825 159744 100081 149417 90308 88367 10941 89140 14992 78744 36691 59109 10327 57870 22319 7686 2887 42053 74148 4994 8457 61509 25501 51580 18388 33192 12909 8662 52215 34313 17071 2040 16121 3667 3255 22157 16552 14372 11629 5479 9998 3768 7562 2665 9623 3114 4451 3005 4247 2021 12454 12056 12658 2329 3780 1031 1920 1870 8249 13096 1941 18551
cat_boundaries=0 1 2 3 4 5 6 7 8 9 10 11 12 13 14 15 16 17 18 19
cat_threshold=43 41697764 1 8 7864640 4194305 9 33 65563 6815808 33880740 1048832 1048832 3932452 3 1048832 33570976 1048832 3
is_linear=0
shrinkage=0.05


Tree=12
num_leaves=63
num_cat=16
split_feature=2 4 9 11 10 12 1 9 6 6 10 9 6 9 4 9 6 6 4 2 11 9 1 2 11 4 11 6 1 1 1 6 6 6 10 11 2 11 6 11 6 11 11 6 2 11 11 2 2 11 0 0 6 6 11 6 6 9 11 6 6 11
split_gain=32924.1 14564.5 4393.74 3552.69 2549.16 2080.3 3519.42 1371.46 1213.6 1177.09 932.022 838.114 653.299 601.299 534.151 374.275 357.922 254.956 222.519 218.465 391.011 203.82 202.756 196.882 185.501 183.429 152.812 150.842 131.696 125.53 117.063 108.967 106.977 105.018 104.474 104.492 104.335 98.2915 98.1679 95.502 82.3108 102.51 80.4051 79.9564 79.5143 253.562 158.738 156.423 131.008 225.932 478.581 293.957 83.9949 77.4264 74.4961 74.1383 78.6516 73.1004 70.2423 61.9427 55.2727 53.4885
threshold=-0.12940952255126037 -0.60785761079279388 1.0000000180025095e-35 0 1.0000000180025095e-35 1 -0.9159756150367534 1.0000000180025095e-35 159.50000000000003 180.50000000000003 1.0000000180025095e-35 1.0000000180025095e-35 207.50000000000003 1.0000000180025095e-35 -0.60785761079279388 1.0000000180025095e-35 122.50000000000001 228.50000000000003 -0.60785761079279388 -0.9159756150367534 2 1.0000000180025095e-35 -0.60355339059327362 -0.98296291314453399 3 -0.60785761079279388 4 141.50000000000003 -0.60355339059327362 -0.98296291314453399 -0.98296291314453399 102.50000000000001 163.50000000000003 175.50000000000003 1.0000000180025095e-35 5 -0.9159756150367534 6 124.50000000000001 7 220.50000000000003 8 9 127.50000000000001 -0.70710678118654757 10 11 -0.5 -0.5 12 16.500000000000004 16.500000000000004 199.50000000000003 256.50000000000006 13 133.50000000000003 159.50000000000003 1.0000000180025095e-35 14 150.50000000000003 183.50000000000003 15
decision_type=2 2 2 9 2 1 2 2 2 2 2 2 2 2 2 2 2 2 2 2 9 2 2 2 9 2 9 2 2 2 2 2 2 2 2 9 2 9 2 9 2 9 9 2 2 9 9 2 2 9 2 2 2 2 9 2 2 2 9 2 2 9
left_child=1 2 24 10 7 6 14 8 16 32 13 18 -11 19 21 22 31 34 -7 20 23 -2 25 -3 -1 -8 -4 -18 -17 -13 40 -5 -10 61 35 -16 37 -15 58 -14 41 -20 -19 -9 46 47 60 52 -47 50 -50 -51 -46 -27 -24 -25 -57 -37 -26 -22 -21 -34
right_child=5 3 26 4 -6 11 15 43 9 12 -12 29 39 36 17 28 27 42 30 44 59 -23 54 55 38 53 -28 -29 -30 -31 -32 -33 33 -35 -36 57 -38 -39 -40 -41 -42 -43 -44 -45 45 48 -48 -49 49 51 -52 -53 -54 -55 -56 56 -58 -59 -60 -61 -62 -63
leaf_value=-0.054036008766263667 -0.054036008766263667 0.075459666777205392 0.19928425404786207 0.11066260817562799 -0.061217277010858884 -0.081054013149395573 -0.081054013149395573 0.28055770027977195 0.027092846500536651 0.06501249907231399 -0.08807855020236284 -0.020760650670875513 0.070538289419477068 0.23451797294800053 0.10807201753252738 0.00667333651999873 0.035163233061185566 0.029216324704318387 -0.054110850883668474 -0.0332677441816406 0.0035890313477539015 0.12363388243854785 -0.044340433334183388 -0.0048069710668361635 -0.067381595946922876 -0.024099161804344751 0.082787921274424608 0.054036008766263667 -0.019534873457447512 -0.04613714834470807 -0.081054013149395573 0.075755837863127923 0.043777841886713659 0.029092031664872089 -0.099348628849616177 0.030817501511838419 0.045569269783938007 0.084343501073000482 -0.054036008766263667 -0.0045788282642143406 -0.054272559613795159 -0.014371079653373076 -0.00095669987087645405 0.14402842050763356 0.0011982114668945389 0.0026249999999999885 0 0.11707979885654299 -0.027372735156249984 0.028516194995996082 0.056849053875662574 -0.059103954900400414 0.063928048683007818 -0.051117166187476554 -0.054036008766263667 0.044862165014515877 0.024882860497656246 0.1381777886967798 -0.024099161804344751 0 -0.033833291837890633 -0.0013471581132863621
leaf_weight=10195 1236 1959 1624 4121 1941 8511 2457 2427 2743 18551 1239 1119 397 726 983 917 13096 806 1034 1831 5589 145 1251 334 847 3110 1449 12405 1247 4766 31574 12431 767 3380 70 2559 4260 1304 11581 3371 4930 2513 2444 7196 1334 9440 14165 1084 1232 1632 1481 2096 267 1857 8783 2288 1310 317 2083 5033 505 7482
leaf_count=10195 1236 1959 1624 4121 1941 8511 2457 2427 2743 18551 1239 1119 397 726 983 917 13096 806 1034 1831 5589 145 1251 334 847 3110 1449 12405 1247 4766 31574 12431 767 3380 70 2559 4260 1304 11581 3371 4930 2513 2444 7196 1334 9440 14165 1084 1232 1632 1481 2096 267 1857 8783 2288 1310 317 2083 5033 505 7482
internal_value=-0.0066075 0.00554665 -0.0276987 0.0117275 0.0179642 -0.0326718 -0.0216158 0.0192113 0.0170336 0.0103879 0.00219548 -0.0383833 0.0175744 0.00311465 0.00512786 -0.0332938 0.0228317 0.0106065 -0.04055 0.00133472 0.00607669 -0.0233473 -0.0357253 0.0163944 -0.0347119 -0.0294574 0.0286828 0.0191147 -0.0136754 -0.020568 -0.0389888 0.028558 -0.000771982 -0.00286738 0.0191761 0.0202755 0.0177096 0.0270405 -0.0309581 -0.00140522 -0.0337669 -0.027951 0.000244608 0.0370302 -0.000898135 0.00134627 -0.00342371 0.0155263 -0.00106003 -0.00655866 0.00442327 -0.0145248 0.00564924 -0.0239264 -0.0403619 0.00996796 0.0120605 0.0152784 -0.0227962 0.000338127 -0.0154704 -0.00590913
internal_weight=259825 177196 27779 149417 90308 82629 28182 88367 78744 36691 59109 54447 22319 57870 8560 19622 42053 7179 48562 51580 16513 1381 17458 5891 24706 7424 3073 25501 2164 5885 40051 16552 14372 11629 3929 3859 6290 2030 14511 3768 8477 3547 3250 9623 35067 18566 16501 2685 15881 6441 2713 3728 1601 4967 10034 3932 3598 2876 2930 10622 2336 8249
internal_count=259825 177196 27779 149417 90308 82629 28182 88367 78744 36691 59109 54447 22319 57870 8560 19622 42053 7179 48562 51580 16513 1381 17458 5891 24706 7424 3073 25501 2164 5885 40051 16552 14372 11629 3929 3859 6290 2030 14511 3768 8477 3547 3250 9623 35067 18566 16501 2685 15881 6441 2713 3728 1601 4967 10034 3932 3598 2876 2930 10622 2336 8249
cat_boundaries=0 1 2 3 4 5 6 7 8 9 10 11 12 13 14 15 16
cat_threshold=41697764 22 6815808 3932452 25363483 1048832 6815808 3 33833120 1048832 1048832 1048832 6815840 1 67 3
is_linear=0
shrinkage=0.05


Tree=13
num_leaves=63
num_cat=13
split_feature=2 3 9 12 10 12 1 6 9 6 10 9 1 3 6 9 3 9 6 6 9 2 12 6 9 9 3 0 6 3 0 6 6 12 6 10 12 2 12 12 6 12 6 6 12 6 0 6 9 6 6 12 6 12 1 12 12 6 6 6 6 9
split_gain=27268.8 12984.7 3723.24 3508.84 2463.22 2428.78 2534.76 1478.12 969.648 892.925 860.195 651.132 649.051 534.151 479.165 477.696 381.169 359.897 357.922 254.956 250.009 234.585 433.353 215.55 208.862 203.82 164.002 160.836 150.842 132.166 137.951 130.746 129.523 119.696 108.967 104.474 104.492 104.335 98.2915 86.8412 83.7847 495.223 584.225 299.688 196.897 391.741 108.41 83.1832 91.3417 82.4279 82.3108 102.51 81.6262 80.4051 78.7772 78.6378 76.8956 369.332 154.367 75.6725 75.0719 73.1004
threshold=-0.12940952255126037 4.5000000000000009 1.0000000180025095e-35 0 1.0000000180025095e-35 1 -0.9159756150367534 159.50000000000003 1.0000000180025095e-35 178.50000000000003 1.0000000180025095e-35 1.0000000180025095e-35 -0.9159756150367534 4.5000000000000009 208.50000000000003 1.0000000180025095e-35 4.5000000000000009 1.0000000180025095e-35 122.50000000000001 228.50000000000003 1.0000000180025095e-35 -0.98296291314453399 2 186.50000000000003 1.0000000180025095e-35 1.0000000180025095e-35 4.5000000000000009 19.500000000000004 141.50000000000003 4.5000000000000009 18.500000000000004 163.50000000000003 199.50000000000003 3 102.50000000000001 1.0000000180025095e-35 4 -0.9159756150367534 5 6 163.50000000000003 7 197.50000000000003 202.50000000000003 8 137.50000000000003 12.500000000000002 262.50000000000006 1.0000000180025095e-35 185.50000000000003 220.50000000000003 9 221.50000000000003 10 -0.78656609248549292 11 12 110.50000000000001 122.50000000000001 122.50000000000001 101.50000000000001 1.0000000180025095e-35
decision_type=2 2 2 1 2 1 2 2 2 2 2 2 2 2 2 2 2 2 2 2 2 2 1 2 2 2 2 2 2 2 2 2 2 1 2 2 1 2 1 1 2 1 2 2 1 2 2 2 2 2 2 1 2 1 2 1 1 2 2 2 2 2
left_child=1 3 33 4 7 6 13 15 9 31 11 21 20 19 23 18 27 26 34 35 29 22 -5 -11 -18 -15 54 -8 -20 30 50 -9 -25 59 -1 36 -2 38 -13 -4 44 42 49 -43 46 56 60 48 -29 55 51 -7 -22 -21 -14 -42 57 -46 -58 -3 -23 -38
right_child=5 2 39 10 -6 12 16 8 -10 14 -12 37 17 25 -16 -17 24 -19 28 53 52 40 -24 32 -26 -27 -28 47 -30 -31 -32 -33 -34 -35 -36 -37 61 -39 -40 -41 41 43 -44 -45 45 -47 -48 -49 -50 -51 -52 -53 -54 -55 -56 -57 58 -59 -60 -61 -62 -63
leaf_value=0.10512947776684661 0.10266841665590101 -0.022894203714127516 0.18932004134546895 0.071686683438345125 -0.058156413160315945 -0.01365252567070443 -0.051334208327950485 0.02573820417550983 0.13422281695766772 0.02763743008162849 -0.083674622692244696 0.2227920743006005 -0.044687312526540214 -0.051334208327950485 -0.0043498868510036147 0.18778587122953339 -0.079165676005597665 -0.043830290927472662 0.033405071408126298 0.027755508469102463 0.0071635431730003203 -0.016222241548627926 0 0.080479749981979515 -0.018558129784575141 0.11745218831662046 -0.077001312491925794 -0.042078869737495153 0.051334208327950485 -0.080875307843488314 -0.048561307878102727 -0.0012798002076220396 0.032979311528512502 -0.051334208327950485 0.071968045969971514 -0.094381197407135353 0.02927662643624649 0.043290806294741115 0.080126326019350463 0.078648525210703382 0 0 0.057582114178183597 -0.056148757155380397 0.097255254528315432 0.038396416338979528 0 -0.048336584572947788 0.0063396696939987951 0.032704582324506841 -0.051558931633105411 -0.051405308339485048 -0.021260409855859332 -0.00090886487733263807 -0.077001312491925794 -0.031604356972558569 -0.040749390625000007 -0.031782941870898411 -0.0017739473167967647 -0.051334208327950485 0.039267661408203126 0.13126889926194082
leaf_weight=4121 983 3231 1624 1959 1941 2513 2057 2743 4534 5479 1239 726 3472 1236 3086 5089 4414 3660 13096 806 607 963 3537 8943 559 145 6683 4695 12405 1828 8381 10283 6157 7278 12431 70 2559 4260 1304 1449 3569 8924 3398 2325 753 3205 1867 7319 578 2767 4930 1034 1618 2444 19721 1431 3662 1781 2466 14197 8973 317
leaf_count=4121 983 3231 1624 1959 1941 2513 2057 2743 4534 5479 1239 726 3472 1236 3086 5089 4414 3660 13096 806 607 963 3537 8943 559 145 6683 4695 12405 1828 8381 10283 6157 7278 12431 70 2559 4260 1304 1449 3569 8924 3398 2325 753 3205 1867 7319 578 2767 4930 1034 1618 2444 19721 1431 3662 1781 2466 14197 8973 317
internal_value=-0.00578541 0.00527577 -0.0261148 0.0111118 0.0173099 -0.0295059 -0.0175686 0.0185357 0.0116202 0.00892437 0.00163898 0.00252194 -0.0356748 0.00512786 0.0147113 0.024583 -0.027479 -0.0399926 0.0228317 0.0106065 -0.0287668 0.000669735 0.0104338 0.0174665 -0.0394412 -0.0233473 -0.0418058 -0.0234175 0.0191147 -0.0306535 -0.0292675 -0.00158873 0.0205492 -0.0325707 0.028558 0.0191761 0.0202755 0.0177096 0.0270405 0.0257867 -0.000494639 -0.00268559 0.00477356 -0.0100847 0.00157984 -0.00296748 0.00614953 -0.0212987 -0.0165074 -0.00278675 -0.0337669 -0.027951 -0.0129185 0.000244608 -0.0398155 -0.00661887 -0.00849621 -0.00113793 -0.0115174 -0.0302152 0.0082321 0.0152784
internal_weight=259825 177196 27779 149417 90308 82629 28182 88367 41225 36691 59109 57870 54447 8560 23665 47142 19622 33536 42053 7179 20911 51580 5496 20579 4973 1381 29876 14649 25501 18686 16858 13026 15100 24706 16552 3929 3859 6290 2030 3073 46084 22414 11165 11249 23670 11867 11803 12592 5273 7767 8477 3547 2225 3250 23193 5000 8662 2534 6128 17428 9936 2876
internal_count=259825 177196 27779 149417 90308 82629 28182 88367 41225 36691 59109 57870 54447 8560 23665 47142 19622 33536 42053 7179 20911 51580 5496 20579 4973 1381 29876 14649 25501 18686 16858 13026 15100 24706 16552 3929 3859 6290 2030 3073 46084 22414 11165 11249 23670 11867 11803 12592 5273 7767 8477 3547 2225 3250 23193 5000 8662 2534 6128 17428 9936 2876
cat_boundaries=0 1 2 3 4 5 6 7 8 9 10 11 12 13
cat_threshold=17 22 4 25 2 4 17 6 8 1 2 4 2
is_linear=0
shrinkage=0.05


Tree=14
num_leaves=63
num_cat=21
split_feature=13 13 6 9 9 11 6 11 11 11 6 6 9 3 11 2 11 6 3 9 6 2 11 3 11 6 2 6 2 2 11 11 11 6 4 7 7 2 6 11 4 7 7 9 6 11 11 6 6 11 11 6 6 2 11 6 6 0 11 2 11 6
split_gain=28288.8 3791.72 3023.22 2643.94 2359.21 2101.8 1277.5 863.843 675.055 525.212 485.663 482.188 423.61 417.657 1238.74 397.997 380.315 369.444 338.597 252.82 242.296 231.566 439.486 196.818 181.592 151.872 137.687 120.587 94.0141 93.1459 91.3147 89.5583 81.7168 78.2045 76.6591 123.782 462.835 76.4504 68.1408 67.7418 67.5475 118.321 387.359 64.339 60.5238 56.1581 54.6099 54.4384 53.1089 108.883 53.0517 51.8675 99.1201 48.7262 86.0354 50.5447 76.081 48.1659 61.1671 48.1156 45.8097 43.8598
threshold=0 1 210.50000000000003 1.0000000180025095e-35 1.0000000180025095e-35 2 129.50000000000003 3 4 5 186.50000000000003 163.50000000000003 1.0000000180025095e-35 4.5000000000000009 6 -0.9159756150367534 7 200.50000000000003 4.5000000000000009 1.0000000180025095e-35 175.50000000000003 -0.98296291314453399 8 4.5000000000000009 9 229.50000000000003 -0.98296291314453399 228.50000000000003 -0.78656609248549325 -0.9159756150367534 10 11 12 150.50000000000003 0.87837969732492682 6.5000000000000009 7.5000000000000009 0.78656609248549303 254.50000000000003 13 0.87837969732492682 6.5000000000000009 7.5000000000000009 1.0000000180025095e-35 208.50000000000003 14 15 164.50000000000003 216.50000000000003 16 17 136.50000000000003 159.50000000000003 -0.9159756150367534 18 137.50000000000003 159.50000000000003 18.500000000000004 19 -0.98296291314453399 20 257.50000000000006
decision_type=9 9 2 2 2 9 2 9 9 9 2 2 2 2 9 2 9 2 2 2 2 2 9 2 9 2 2 2 2 2 9 9 9 2 2 2 2 2 2 9 2 2 2 2 2 9 9 2 2 9 9 2 2 2 9 2 2 2 9 2 9 2
left_child=1 4 3 5 13 21 40 18 27 29 11 26 23 14 25 24 33 31 37 61 45 22 -2 -9 -15 -1 -8 -4 47 30 -5 -12 -17 -6 53 -36 -37 43 -21 -19 46 -42 -43 -3 -41 -13 -7 -11 49 -10 -27 -28 -53 54 55 -23 -57 -18 -59 -26 -32 -20
right_child=2 7 8 9 16 6 10 12 48 28 17 20 -14 15 -16 32 57 39 19 38 -22 34 -24 -25 59 50 51 -29 -30 -31 60 -33 -34 -35 35 36 -38 -39 -40 44 41 42 -44 -45 -46 -47 -48 -49 -50 -51 -52 52 -54 -55 -56 56 -58 58 -60 -61 -62 -63
leaf_value=0.047534995823105941 0.068102349266427886 -0.043692882280431236 0.033626601403496693 0.21165247058557046 0.12517356848141814 0.031734817837719968 0.048767497911552972 -0.073151246867329503 -0.05584131929761136 0.1356038893868067 0.029925111352021274 0.03939668980275908 -0.04163877638109903 -0.048767497911552965 -0.048756261746295194 -0.052748665138115491 0.12595498648923065 0.06602894174625043 -0.073043028691645903 0.048830308986227804 0.026255558577547067 -0.0016852499509569354 -0.00092814994619629945 -0.073151246867329503 -0.048767497911552965 0.026367733045647348 0.023589589159666226 -0.0047756459348527354 0.21404064564103431 0.041126265980004066 0.03597807299963298 0.076455762482880552 -0.048767497911552965 -0.021466214246757986 0 -0.079490891557632462 0 -0.0459197553443004 -0.017630223295346383 0.030581293957946266 0.070400268671472907 -0.038807851533550132 0.070400268671472907 0.0031985325259709986 -0.0041323925084534308 -0.0012158101972409296 0.070400268671472907 0.056962215048653647 -0.04613324248419759 -0.0041323925084534308 -0.0021134216334659952 0.023589589159666226 0.022522200216734324 0 0 0.086476595522030533 0.029143976608949476 -0.020197389363066365 0.096828259545591655 -0.048767497911552965 0.080412525343383043 -0.08129350876062913
leaf_weight=2866 2010 4122 1592 726 81 1503 8486 24093 671 3771 941 785 3973 2299 9998 7593 3500 672 2139 241 7701 826 3621 8236 1864 716 4954 923 4371 4151 302 8898 10790 1000 5465 1084 2245 7934 319 5093 2638 533 1042 499 1247 7670 16183 1265 8117 2006 1412 7749 2808 28377 5856 1366 1094 204 256 3682 1002 2264
leaf_count=2866 2010 4122 1592 726 81 1503 8486 24093 671 3771 941 785 3973 2299 9998 7593 3500 672 2139 241 7701 826 3621 8236 1864 716 4954 923 4371 4151 302 8898 10790 1000 5465 1084 2245 7934 319 5093 2638 533 1042 499 1247 7670 16183 1265 8117 2006 1412 7749 2808 28377 5856 1366 1094 204 256 3682 1002 2264
internal_value=-0.00523658 -0.0260787 0.0078223 0.0098965 -0.0155722 0.00757751 0.0127184 -0.0351048 -0.0149931 0.0293618 0.00877647 0.00578648 -0.0395239 -0.0195243 -0.0128664 -0.0233297 0.0167116 0.0159007 -0.0259295 -0.0370021 -0.000890995 -0.000233764 0.00934009 -0.0414285 -0.0138998 0.00747287 0.0102823 0.00833432 0.0368102 0.0179362 0.026745 0.0221509 -0.0273537 -0.00957291 -0.00139798 -0.00559978 -0.0132003 -0.0215725 -0.00534726 0.00712982 0.0229847 0.0172901 0.00644086 -0.016456 0.00549519 -0.00673499 0.0243409 0.0321866 -0.0204177 -0.0143233 -0.00262911 0.0130839 0.0150652 -0.00041299 0.0027614 0.0092215 0.012843 0.023852 0.0086829 -0.00894422 0.0183357 -0.0410268
internal_weight=259825 100081 159744 146435 46261 130847 78903 53820 13309 15588 57004 40153 36302 41220 14992 26228 5041 16851 17518 4963 16156 51944 5631 32329 7845 4994 23997 2515 9407 6181 2030 9839 18383 1081 46313 8794 3329 12555 560 7012 21899 4213 1575 4621 6340 8455 17686 5036 10794 2677 2128 15511 10557 37519 9142 3286 2460 3960 460 5546 1304 4403
internal_count=259825 100081 159744 146435 46261 130847 78903 53820 13309 15588 57004 40153 36302 41220 14992 26228 5041 16851 17518 4963 16156 51944 5631 32329 7845 4994 23997 2515 9407 6181 2030 9839 18383 1081 46313 8794 3329 12555 560 7012 21899 4213 1575 4621 6340 8455 17686 5036 10794 2677 2128 15511 10557 37519 9142 3286 2460 3960 460 5546 1304 4403
cat_boundaries=0 1 2 3 4 5 6 7 8 9 10 11 12 13 14 15 16 17 18 19 20 21
cat_threshold=43 9 41697764 7864641 7864643 41697732 7864640 33618592 6815808 1311012 6815808 3 3932260 3 3 3 168050820 1048832 6815808 27264000 1048832
is_linear=0
shrinkage=0.05


Tree=15
num_leaves=63
num_cat=21
split_feature=13 13 10 0 9 9 12 0 12 12 3 12 12 9 0 12 0 0 0 9 3 12 12 2 12 0 0 2 12 3 0 1 0 2 0 12 0 0 12 0 13 12 0 12 2 12 0 0 12 12 10 0 2 12 10 9 0 0 0 0 10 2
split_gain=25992.1 4468.92 2891.5 2790.34 2486.85 2097.83 1768.97 1171.01 1094.07 471.622 438.041 400.827 398.462 354.11 294.006 381.081 280.988 581.768 404.758 266.58 244.029 919.952 256.255 236.256 417.938 152.232 149.686 148.987 162.794 140.642 136.143 119.87 95.0952 88.965 87.7388 546.529 515.794 231.844 202.737 196.066 129.072 302.58 127.067 114.495 81.6948 78.0728 76.3405 97.215 76.1325 73.2712 72.2152 71.3079 70.7593 69.7059 54.6976 54.6229 52.2341 51.4398 50.5775 48.7738 48.6093 47.4767
threshold=0 1 1.0000000180025095e-35 17.500000000000004 1.0000000180025095e-35 1.0000000180025095e-35 2 9.5000000000000018 3 4 4.5000000000000009 5 6 1.0000000180025095e-35 17.500000000000004 7 14.500000000000002 11.500000000000002 16.500000000000004 1.0000000180025095e-35 4.5000000000000009 8 9 -0.98296291314453399 10 17.500000000000004 18.500000000000004 -0.9159756150367534 11 4.5000000000000009 13.500000000000002 -0.60355339059327362 15.500000000000002 -0.9159756150367534 13.500000000000002 12 15.500000000000002 16.500000000000004 13 10.500000000000002 14 15 12.500000000000002 16 -0.78656609248549325 17 14.500000000000002 16.500000000000004 18 19 1.0000000180025095e-35 16.500000000000004 -0.9159756150367534 20 1.0000000180025095e-35 1.0000000180025095e-35 16.500000000000004 15.500000000000002 18.500000000000004 20.500000000000004 1.0000000180025095e-35 -0.98296291314453399
decision_type=9 9 2 2 2 2 1 2 1 1 2 1 1 2 2 1 2 2 2 2 2 1 1 2 1 2 2 2 1 2 2 2 2 2 2 1 2 2 1 2 9 1 2 1 2 1 2 2 1 1 2 2 2 1 2 2 2 2 2 2 2 2
left_child=1 5 3 4 6 11 7 -2 10 44 31 -1 58 29 48 -16 17 -9 32 -12 21 26 25 24 -8 46 50 28 61 -10 -19 55 -18 53 38 36 49 57 42 40 -40 -42 -25 -41 -6 -28 52 -48 -7 -36 -13 -46 -22 -11 -23 -3 -38 -37 -5 -21 -33 -24
right_child=2 8 -4 12 9 14 23 16 13 33 19 20 -14 -15 15 -17 18 30 -20 59 22 54 27 34 -26 -27 45 -29 -30 -31 -32 60 -34 -35 35 37 56 -39 39 43 41 -43 -44 -45 51 -47 47 -49 -50 -51 -52 -53 -54 -55 -56 -57 -58 -59 -60 -61 -62 -63
leaf_value=-0.046318448658980438 0.071459916842086899 -0.040844455110678718 -0.075516346979750848 0.029995011138009356 0.11916066910333889 0.171300039953734 0.064697231803106492 0.036389319247896346 -0.069493684523963026 0.1263918990762139 -0.071555240770735482 0.071005558305807667 -0.04382658035998771 -0.039556837562044082 0.14410534952690615 -0.019187519894913053 0.044833865418259046 0.046329123015975339 0.0085834053909083167 0.046388793536916412 -0.046329123015975318 -0.04369542939688284 0.0036708769840246847 0.037304278337792977 4.6407497309819415e-05 -0.08636991782104185 0.02504934639336498 -0.046329123015975318 -0.046329123015975318 -0.069493684523963026 -0.0011550196873788777 -0.043623767577085373 0.07099515135287722 0.039069952681003842 0 0 0.042575564402719993 -0.050549253332730797 -0.038711921093750018 0.032152765745929027 0.1189895135099563 -0.022791169414062496 0 -0.042432931801762712 0.21013648757773257 -0.0032577505517926934 -0.046329123015975318 -0.046329123015975318 0.068875819156956605 -0.030024139123930649 -0.092038887327933888 0.076914990507099518 -0.046329123015975318 0.034179169349651331 -0.093616648220667259 -0.0085402646602350529 0.053121624855920452 -0.045137500000000011 -0.0044743473484420765 -0.016748712130579071 -0.093623767577085376 -0.046329123015975318
leaf_weight=7964 14313 4735 3371 900 5069 1659 1956 16558 22331 1725 5020 2352 8242 3640 692 1320 8205 16630 6523 226 4149 6517 455 9926 3572 811 854 5429 945 7443 8275 8966 8275 4299 3900 5499 2764 2116 5866 3902 572 794 2764 1585 3763 1723 2769 1361 1440 1574 65 814 4828 278 171 580 2006 2748 948 391 201 922
leaf_count=7964 14313 4735 3371 900 5069 1659 1956 16558 22331 1725 5020 2352 8242 3640 692 1320 8205 16630 6523 226 4149 6517 455 9926 3572 811 854 5429 945 7443 8275 8966 8275 4299 3900 5499 2764 2116 5866 3902 572 794 2764 1585 3763 1723 2769 1361 1440 1574 65 814 4828 278 171 580 2006 2748 948 391 201 922
internal_value=-0.00515649 -0.0251512 0.00735714 0.00834539 0.0100997 -0.0137909 0.00781899 0.0125302 -0.0349988 0.0287367 -0.0257411 -0.0175322 -0.0170856 -0.0405634 0.0164241 0.00153819 0.00965926 0.00720026 0.0140914 -0.0375805 -0.0151088 -0.00928729 -0.0182539 0.000615761 0.0103824 -0.0141581 0.0069533 -0.0255563 -0.0149843 -0.0423756 0.0023708 -0.0211499 0.0182641 0.0179964 -0.000557305 -0.00298174 0.00520719 -0.0110714 0.00140875 -0.00305167 -0.00846158 0.00537388 0.00587751 0.00407228 0.0356971 -0.00141438 -0.0128667 -0.00723832 0.0260866 -0.00526023 0.0159054 0.0405814 -0.0154554 0.0267311 -0.0213934 -0.0151728 0.0172313 -0.00729287 0.00392605 -0.00655485 -0.0246147 -0.00385336
internal_weight=259691 99959 159732 156361 146271 46426 130323 78779 53533 15948 20119 41315 10090 33414 5111 2012 64466 41463 23003 5637 33351 11682 21669 51544 5528 13918 4994 7751 2322 29774 24905 14482 16480 6302 46016 20607 10244 10363 25409 12719 7232 1366 12690 5487 9646 2577 13107 4130 3099 5474 2417 4577 8977 2003 6688 5315 4770 8247 1848 617 9167 1377
internal_count=259691 99959 159732 156361 146271 46426 130323 78779 53533 15948 20119 41315 10090 33414 5111 2012 64466 41463 23003 5637 33351 11682 21669 51544 5528 13918 4994 7751 2322 29774 24905 14482 16480 6302 46016 20607 10244 10363 25409 12719 7232 1366 12690 5487 9646 2577 13107 4130 3099 5474 2417 4577 8977 2003 6688 5315 4770 8247 1848 617 9167 1377
cat_boundaries=0 1 2 3 4 5 6 7 8 9 10 11 12 13 14 15 16 17 18 19 20 21
cat_threshold=43 9 17 22 17 8 20 22 6 17 4 4 6 8 132 2 4 2 17 4 12
is_linear=0
shrinkage=0.05


Tree=16
num_leaves=63
num_cat=20
split_feature=13 13 10 6 9 9 11 6 12 6 11 4 9 11 4 11 11 6 12 6 9 2 11 2 11 6 6 4 2 1 6 6 2 6 6 4 11 2 11 11 2 2 6 6 11 11 10 6 6 6 9 1 2 11 6 12 11 6 11 6 2 1
split_gain=25146.1 4735.42 2802.66 2550.56 1972.76 1965.94 1572.89 1501.99 1077.67 806.436 688.619 438.041 399.039 385.43 528.302 495.555 342.382 315.975 315.067 286.061 266.58 210.729 334.449 215.727 200.087 189.778 166.957 140.642 122.49 119.87 109.611 106.405 103.752 220.175 96.678 97.5038 89.8761 89.5281 236.927 162.804 134.363 121.091 88.6216 86.5472 130.93 84.9759 84.7181 80.2335 203.329 71.8286 70.698 70.0465 68.5638 65.8312 65.4189 218.688 83.7205 65.0481 63.9609 61.1835 60.4801 60.055
threshold=0 1 1.0000000180025095e-35 209.50000000000003 1.0000000180025095e-35 1.0000000180025095e-35 2 123.50000000000001 3 186.50000000000003 4 -0.60785761079279388 1.0000000180025095e-35 5 -0.60785761079279388 6 7 141.50000000000003 8 199.50000000000003 1.0000000180025095e-35 -0.9159756150367534 9 -0.98296291314453399 10 213.50000000000003 229.50000000000003 -0.60785761079279388 -0.98296291314453399 -0.60355339059327362 224.50000000000003 181.50000000000003 -0.78656609248549325 165.50000000000003 145.50000000000003 -0.60785761079279388 11 -0.70710678118654757 12 13 -0.5 -0.5 198.50000000000003 224.50000000000003 14 15 1.0000000180025095e-35 178.50000000000003 163.50000000000003 255.50000000000003 1.0000000180025095e-35 -0.9159756150367534 -0.9159756150367534 16 208.50000000000003 17 18 199.50000000000003 19 171.50000000000003 -0.9159756150367534 -0.9159756150367534
decision_type=9 9 2 2 2 2 9 2 1 2 9 2 2 9 2 9 9 2 1 2 2 2 9 2 9 2 2 2 2 2 2 2 2 2 2 2 9 2 9 9 2 2 2 2 9 9 2 2 2 2 2 2 2 9 2 1 9 2 9 2 2 2
left_child=1 5 3 4 6 13 21 -8 11 17 30 20 27 34 24 -16 42 -9 32 45 -3 22 23 -2 28 31 46 -10 36 -13 -5 60 33 -6 -1 -36 -15 39 40 -23 57 -40 -7 44 -12 -11 -17 48 -19 -22 -46 -33 58 -28 56 -56 -18 -39 -20 -50 -26 -14
right_child=2 8 -4 10 18 16 7 9 12 19 43 29 61 14 15 26 54 47 52 -21 49 37 -24 -25 25 -27 53 -29 -30 -31 -32 51 -34 -35 35 -37 -38 38 41 -41 -42 -43 -44 -45 50 -47 -48 -49 59 -51 -52 -53 -54 -55 55 -57 -58 -59 -60 -61 -62 -63
leaf_value=-0.041094358004239176 0.06146237021295118 -0.067977478732198712 -0.0717405296307633 0.050465543613124435 0.11945572799626794 0.069137093667703806 0.074033207160721801 0.020590643739288095 -0.066019000297764877 0.024879098216776363 -0.046961658951250485 -0.024516825698880276 0.00023581228872481265 0.0034873331348234562 -0.041510657927038702 0.04160796811666026 0.06543202819910876 0.044012666865176575 0.032470210882168747 0.036960619633410109 0.044069353860070583 -0.028258198722665995 0 0.030545127458632582 -0.044012666865176554 -0.082051421929989765 0.023796879073696743 -0.066019000297764877 -0.044012666865176554 -0.041442579198231105 -0.00175062998101998 -0.044012666865176554 0.19283178898009595 0.048156070841053999 -0.041094358004239176 -0.044081307402247021 -0.044012666865176554 0.00077999767654783896 0.0047506249999999866 0 0.10041357051180225 -0.0094893160840998202 -0.019433527539674447 -0.041635251341988325 -0.0084719082449599362 0.070896457128497223 -0.087436942961537201 0.025000531633038659 -0.0010972687030099237 -0.015911276524050111 0.023403789522443087 -0.044012666865176554 0.037116455046953649 -0.0030948630242030543 -0.018228143900167405 0.13909642844858539 0.16273503795604727 0.055723762319812242 0.12007230412240318 0.02644639314750119 -0.044012666865176554 -0.037578995683941879
leaf_weight=1677 1956 5020 3371 1783 3863 158 17060 12440 7443 867 1484 5315 113 455 2510 2739 1014 15246 278 6866 271 2370 10682 3902 4149 1039 722 22331 6977 9167 1167 1133 4275 1206 2923 7542 319 1302 9428 14122 981 5213 937 5302 4045 8093 74 5478 5509 346 503 2528 4121 1459 509 761 1732 264 1725 4830 5069 3527
leaf_count=1677 1956 5020 3371 1783 3863 158 17060 12440 7443 867 1484 5315 113 455 2510 2739 1014 15246 278 6866 271 2370 10682 3902 4149 1039 722 22331 6977 9167 1167 1133 4275 1206 2923 7542 319 1302 9428 14122 981 5213 937 5302 4045 8093 74 5478 5509 346 503 2528 4121 1459 509 761 1732 264 1725 4830 5069 3527
internal_value=-0.00512646 -0.0247931 0.00718186 0.00815481 0.0101796 -0.0130996 0.00812023 0.0126382 -0.0349297 0.00888004 -0.011985 -0.0257411 -0.0404527 -0.0167214 -0.0135882 -0.00215815 0.0161501 0.00536387 0.027036 0.018545 -0.0375805 0.00124517 0.00586726 0.0154556 -0.0175524 -0.0139283 0.0069533 -0.0423756 -0.0240101 -0.0211499 0.00952502 -0.0122792 0.03283 0.0280217 -0.0242176 -0.0260241 -0.00516083 -0.0010242 0.00150075 -0.00365599 0.015543 -0.000951806 -0.00863723 -0.017577 -0.0134936 0.02443 0.0150172 0.00266699 0.00149091 -0.00655485 -0.00921327 -0.00506542 0.0181111 -0.00341342 0.0228745 0.0135383 0.0272732 0.0065098 0.0257326 -0.00392152 -0.0151436 -0.0248331
internal_weight=259691 99959 159732 156361 142077 46426 126609 76389 53533 59329 14284 20119 33414 41315 29173 7504 5111 43503 15468 15826 5637 50220 16540 5858 21669 13918 4994 29774 7751 14482 2950 12879 9344 5069 12142 10465 774 33680 17188 16492 2547 14641 1095 11334 6032 8960 2813 31063 25585 617 4548 3661 6124 2181 4016 1270 2746 1566 2003 10339 9218 3640
internal_count=259691 99959 159732 156361 142077 46426 126609 76389 53533 59329 14284 20119 33414 41315 29173 7504 5111 43503 15468 15826 5637 50220 16540 5858 21669 13918 4994 29774 7751 14482 2950 12879 9344 5069 12142 10465 774 33680 17188 16492 2547 14641 1095 11334 6032 8960 2813 31063 25585 617 4548 3661 6124 2181 4016 1270 2746 1566 2003 10339 9218 3640
cat_boundaries=0 1 2 3 4 5 6 7 8 9 10 11 12 13 14 15 16 17 18 19 20
cat_threshold=43 9 41697764 22 142082379 33880740 25166848 33618592 17 6815808 3670336 2621504 1048832 1048832 33833092 3 1048832 9 3932480 1048832
is_linear=0
shrinkage=0.05


Tree=17
num_leaves=63
num_cat=21
